{"learner":{"attributes":{"scikit_learn":"{\"_estimator_type\": \"classifier\"}"},"feature_names":[],"feature_types":[],"gradient_booster":{"model":{"gbtree_model_param":{"num_parallel_tree":"1","num_trees":"100"},"iteration_indptr":[0,1,2,3,4,5,6,7,8,9,10,11,12,13,14,15,16,17,18,19,20,21,22,23,24,25,26,27,28,29,30,31,32,33,34,35,36,37,38,39,40,41,42,43,44,45,46,47,48,49,50,51,52,53,54,55,56,57,58,59,60,61,62,63,64,65,66,67,68,69,70,71,72,73,74,75,76,77,78,79,80,81,82,83,84,85,86,87,88,89,90,91,92,93,94,95,96,97,98,99,100],"tree_info":[0,0,0,0,0,0,0,0,0,0,0,0,0,0,0,0,0,0,0,0,0,0,0,0,0,0,0,0,0,0,0,0,0,0,0,0,0,0,0,0,0,0,0,0,0,0,0,0,0,0,0,0,0,0,0,0,0,0,0,0,0,0,0,0,0,0,0,0,0,0,0,0,0,0,0,0,0,0,0,0,0,0,0,0,0,0,0,0,0,0,0,0,0,0,0,0,0,0,0,0],"trees":[{"base_weights":[-1.7808279E-2,1.3356178E-1,-5.7881516E-1,3.2891443E-1,-6.740521E-2,-8.209252E-1,3.8823325E-2,3.5927334E-1,-2.7418932E-1,-3.721957E-2,-3.0254483E-1,-8.697952E-1,1.7269935E-1,-5.5379283E-2,3.0935678E-1,4.1712236E-1,-2.3793106E-1,-4.07593E-3,-2.192886E-1,-9.135867E-1,1.3035508E-1,-6.676998E-1,1.137684E-1,8.090394E-1,3.346366E-1,-4.0991214E-1,2.3443015E-1,1.9494657E-1,-1.205818E-1,-9.501819E-1,5.7621755E-2,1.6967975E-1,-1.0967431E-1,1.51963085E-2,-3.2501268E-1,-3.495927E-2,7.232232E-1,1.687903E-1,4.3819478E-1,1.1030335E-1,-2.4913053E-1,-1.606345E-1,1.0824052E-1,8.2312495E-2,-3.2501268E-1,-5.1787652E-2,1.8096125E-1,-2.9670915E-1,5.7621755E-2,-4.2601623E-2,1.7269935E-1,2.8777695E-1,3.0002719E-2],"categories":[],"categories_nodes":[],"categories_segments":[],"categories_sizes":[],"default_left":[0,0,0,0,0,0,0,0,0,0,0,0,0,0,0,0,0,0,0,0,0,0,0,0,0,0,0,0,0,0,0,0,0,0,0,0,0,0,0,0,0,0,0,0,0,0,0,0,0,0,0,0,0],"id":0,"left_children":[1,3,5,7,9,11,13,15,-1,17,-1,19,-1,21,-1,23,25,27,-1,29,31,33,35,37,39,41,-1,43,45,47,-1,-1,-1,-1,-1,49,51,-1,-1,-1,-1,-1,-1,-1,-1,-1,-1,-1,-1,-1,-1,-1,-1],"loss_changes":[3.297123E1,1.2030017E1,1.2367826E1,6.186926E0,4.2687697E0,4.548622E0,2.3180792E0,5.360222E0,0E0,3.3981655E0,0E0,2.6463242E0,0E0,2.4620676E0,0E0,4.2291546E0,2.7895913E0,3.320296E0,0E0,2.424343E0,9.181436E-1,1.587342E0,1.7389641E0,2.9508867E0,4.7977257E0,1.4226904E0,0E0,5.666537E0,3.5055857E0,2.5773087E0,0E0,0E0,0E0,0E0,0E0,1.1374636E0,4.5638633E-1,0E0,0E0,0E0,0E0,0E0,0E0,0E0,0E0,0E0,0E0,0E0,0E0,0E0,0E0,0E0,0E0],"parents":[2147483647,0,0,1,1,2,2,3,3,4,4,5,5,6,6,7,7,9,9,11,11,13,13,15,15,16,16,17,17,19,19,20,20,21,21,22,22,23,23,24,24,25,25,27,27,28,28,29,29,35,35,36,36],"right_children":[2,4,6,8,10,12,14,16,-1,18,-1,20,-1,22,-1,24,26,28,-1,30,32,34,36,38,40,42,-1,44,46,48,-1,-1,-1,-1,-1,50,52,-1,-1,-1,-1,-1,-1,-1,-1,-1,-1,-1,-1,-1,-1,-1,-1],"split_conditions":[8E-1,1E0,8.5E1,1E0,1E0,1E0,1E0,5E0,-2.7418932E-1,1E0,-3.0254483E-1,1E0,1.7269935E-1,9E-1,3.0935678E-1,2E-1,1.6E1,5E0,-2.192886E-1,1E0,6.7E1,1E0,1E0,6E1,1E0,6.7E1,2.3443015E-1,1E0,1E0,1E0,5.7621755E-2,1.6967975E-1,-1.0967431E-1,1.51963085E-2,-3.2501268E-1,1E0,1.02E2,1.687903E-1,4.3819478E-1,1.1030335E-1,-2.4913053E-1,-1.606345E-1,1.0824052E-1,8.2312495E-2,-3.2501268E-1,-5.1787652E-2,1.8096125E-1,-2.9670915E-1,5.7621755E-2,-4.2601623E-2,1.7269935E-1,2.8777695E-1,3.0002719E-2],"split_indices":[71,64,70,30,19,35,48,67,0,22,0,4,0,71,0,71,67,69,0,8,70,64,20,70,23,70,0,6,28,52,0,0,0,0,0,6,70,0,0,0,0,0,0,0,0,0,0,0,0,0,0,0,0],"split_type":[0,0,0,0,0,0,0,0,0,0,0,0,0,0,0,0,0,0,0,0,0,0,0,0,0,0,0,0,0,0,0,0,0,0,0,0,0,0,0,0,0,0,0,0,0,0,0,0,0,0,0,0,0],"sum_hessian":[3.8635352E2,3.0485886E2,8.149465E1,1.5426593E2,1.5059294E2,5.830885E1,2.3185802E1,1.5128162E2,2.984311E0,1.4691994E2,3.6729984E0,5.6701912E1,1.6069368E0,2.203799E1,1.147812E0,1.3819656E2,1.3085057E1,1.4118088E2,5.73906E0,5.440629E1,2.295624E0,4.132123E0,1.7905867E1,2.2497116E1,1.1569945E2,1.1707683E1,1.3773744E0,5.1881104E1,8.9299774E1,5.279935E1,1.6069368E0,1.147812E0,1.147812E0,1.8364992E0,2.295624E0,1.5151118E1,2.7547488E0,1.7676306E1,4.8208103E0,1.1317426E2,2.5251865E0,1.0330308E1,1.3773744E0,4.958548E1,2.295624E0,8.401984E1,5.2799354E0,5.1192417E1,1.6069368E0,1.3544182E1,1.6069368E0,1.6069368E0,1.147812E0],"tree_param":{"num_deleted":"0","num_feature":"72","num_nodes":"53","size_leaf_vector":"1"}},{"base_weights":[-1.5874812E-2,8.957522E-2,-4.3591312E-1,2.2448215E-1,-5.3285904E-2,-6.462068E-1,3.4478735E-2,2.4669564E-1,-2.3096044E-1,-2.9667806E-2,-8.498917E-1,-6.9056296E-1,1.3639447E-1,-7.000681E-2,7.4272484E-1,2.1685323E-1,3.313626E-1,-5.2799545E-2,6.854172E-1,-2.9368335E-1,-6.715437E-2,-1.4539988E-1,-7.9571503E-1,2.576333E-2,-2.6893762E-1,3.0390766E-1,3.6309864E-2,1.8283583E-1,9.5795834E-1,-7.971701E-2,4.501953E-1,2.534364E-1,3.0707652E-2,1.2202414E-2,-3.0667025E-1,-8.367132E-1,4.64276E-2,1.8742038E-1,-4.949251E-1,4.6124876E-2,3.0389827E-1,4.2013273E-1,6.584394E-2,-3.5294693E-2,1.8793504E-1,3.3715627E-1,-9.529339E-3,-6.5992E-2,5.305809E-2,-1.878952E-1,5.0010543E-2,-2.6431766E-1,4.64276E-2,1.7778115E-1,-6.429352E-2,-2.3540977E-1,9.254747E-3],"categories":[],"categories_nodes":[],"categories_segments":[],"categories_sizes":[],"default_left":[0,0,0,0,0,0,0,0,0,0,0,0,0,0,0,0,0,0,0,0,0,0,0,0,0,0,0,0,0,0,0,0,0,0,0,0,0,0,0,0,0,0,0,0,0,0,0,0,0,0,0,0,0,0,0,0,0],"id":1,"left_children":[1,3,5,7,9,11,13,15,-1,17,19,21,-1,23,25,27,-1,29,31,-1,-1,33,35,37,-1,-1,-1,39,41,43,45,-1,-1,47,49,51,-1,53,55,-1,-1,-1,-1,-1,-1,-1,-1,-1,-1,-1,-1,-1,-1,-1,-1,-1,-1],"loss_changes":[1.7085022E1,5.9566617E0,7.678485E0,3.6982021E0,2.8085158E0,2.9281483E0,1.8917367E0,3.7571478E0,0E0,2.4729488E0,1.2833571E-1,2.8571854E0,0E0,1.8101779E0,4.2895615E-1,3.659729E0,0E0,1.9805088E0,3.4910965E-1,0E0,0E0,2.4797148E-1,1.8148842E0,1.8777252E0,0E0,0E0,0E0,3.3858862E0,1.7969632E0,3.7482777E0,2.453285E0,0E0,0E0,2.6145902E-1,8.2881844E-1,1.966217E0,0E0,2.8790886E0,8.3148694E-1,0E0,0E0,0E0,0E0,0E0,0E0,0E0,0E0,0E0,0E0,0E0,0E0,0E0,0E0,0E0,0E0,0E0,0E0],"parents":[2147483647,0,0,1,1,2,2,3,3,4,4,5,5,6,6,7,7,9,9,10,10,11,11,13,13,14,14,15,15,17,17,18,18,21,21,22,22,23,23,27,27,28,28,29,29,30,30,33,33,34,34,35,35,37,37,38,38],"right_children":[2,4,6,8,10,12,14,16,-1,18,20,22,-1,24,26,28,-1,30,32,-1,-1,34,36,38,-1,-1,-1,40,42,44,46,-1,-1,48,50,52,-1,54,56,-1,-1,-1,-1,-1,-1,-1,-1,-1,-1,-1,-1,-1,-1,-1,-1,-1,-1],"split_conditions":[8E-1,1E0,8.4E1,1E0,1E0,1E0,1.04E2,1E0,-2.3096044E-1,1E0,7.5E1,6.3E1,1.3639447E-1,1.02E2,1E0,1E0,3.313626E-1,1E0,7.2E1,-2.9368335E-1,-6.715437E-2,5E0,1E0,8E0,-2.6893762E-1,3.0390766E-1,3.6309864E-2,1E0,7.1E1,1E0,6.4E1,2.534364E-1,3.0707652E-2,5.4E1,6.1E1,1E0,4.64276E-2,9.2E1,9.1E1,4.6124876E-2,3.0389827E-1,4.2013273E-1,6.584394E-2,-3.5294693E-2,1.8793504E-1,3.3715627E-1,-9.529339E-3,-6.5992E-2,5.305809E-2,-1.878952E-1,5.0010543E-2,-2.6431766E-1,4.64276E-2,1.7778115E-1,-6.429352E-2,-2.3540977E-1,9.254747E-3],"split_indices":[71,64,70,30,19,35,70,44,0,63,70,70,0,70,20,17,0,28,70,0,0,69,8,69,0,0,0,46,70,52,70,0,0,70,70,52,0,70,70,0,0,0,0,0,0,0,0,0,0,0,0,0,0,0,0,0,0],"split_type":[0,0,0,0,0,0,0,0,0,0,0,0,0,0,0,0,0,0,0,0,0,0,0,0,0,0,0,0,0,0,0,0,0,0,0,0,0,0,0,0,0,0,0,0,0,0,0,0,0,0,0,0,0,0,0,0,0],"sum_hessian":[3.8384534E2,3.0744775E2,7.639759E1,1.5783209E2,1.4961566E2,5.2536728E1,2.3860867E1,1.5511868E2,2.713401E0,1.463149E2,3.300762E0,5.0860146E1,1.6765789E0,2.1578592E1,2.2822738E0,1.5111456E2,4.0041237E0,1.4262732E2,3.6875794E0,2.2692738E0,1.0314881E0,8.609056E0,4.225109E1,2.0205933E1,1.3726588E0,1.1519576E0,1.1303163E0,1.4567467E2,5.439892E0,1.3618118E2,6.4461393E0,2.5434675E0,1.1441121E0,4.8215284E0,3.7875276E0,4.0618713E1,1.6323793E0,1.5907285E1,4.298649E0,1.4188853E2,3.7861404E0,2.8411396E0,2.5987525E0,1.3002998E2,6.1511974E0,2.1329575E0,4.313182E0,1.8612013E0,2.9603271E0,2.0680015E0,1.7195262E0,3.8986332E1,1.6323793E0,7.6830783E0,8.224206E0,2.4538016E0,1.844847E0],"tree_param":{"num_deleted":"0","num_feature":"72","num_nodes":"57","size_leaf_vector":"1"}},{"base_weights":[-1.0982155E-2,7.996341E-2,-2.9403833E-1,1.0202368E-1,-5.6440383E-1,-4.7547227E-1,4.1041825E-2,2.0039852E-1,-6.381202E-3,-7.540151E-1,-5.0615545E-2,-5.3117114E-1,2.0595598E-1,-5.2723702E-2,4.2425525E-1,2.2847717E-1,-5.2281237E-1,1.7231891E-2,-2.7842784E-1,-3.1015652E-1,-4.3400782E-1,1.6832733E-1,-1.6243944E-1,-1.2118993E-1,-5.9874916E-1,8.1247354E-1,-1.7882027E-1,1.9342408E-1,3.2294044E-1,-8.386191E-1,7.7447444E-2,4.258437E-2,-6.030946E-1,1.3367315E-1,-2.851929E-1,5.7505104E-3,-2.542733E-1,-6.409502E-1,1.3234237E-1,1.5540457E-2,3.8274455E-1,-2.5453356E-1,2.5765046E-1,6.5861106E-2,-1.6043833E-1,-1.20020835E-2,-3.3971044E-1,2.031519E-2,-1.818817E-1,-2.8173503E-1,-2.9406233E-2,-8.078198E-3,7.241548E-2,3.4561526E-2,-7.530954E-2,-1.6025436E-1,3.999823E-2,-2.0384763E-1,7.074153E-2,1.6705789E-1,-1.085468E-1,-1.0059769E-1,1.4832187E-1],"categories":[],"categories_nodes":[],"categories_segments":[],"categories_sizes":[],"default_left":[0,0,0,0,0,0,0,0,0,0,0,0,0,0,0,0,0,0,0,0,0,0,0,0,0,0,0,0,0,0,0,0,0,0,0,0,0,0,0,0,0,0,0,0,0,0,0,0,0,0,0,0,0,0,0,0,0,0,0,0,0,0,0],"id":2,"left_children":[1,3,5,7,9,11,13,15,17,19,21,23,-1,25,-1,27,29,31,-1,-1,33,-1,-1,35,37,39,41,43,-1,45,-1,47,49,51,-1,53,55,57,59,-1,-1,61,-1,-1,-1,-1,-1,-1,-1,-1,-1,-1,-1,-1,-1,-1,-1,-1,-1,-1,-1,-1,-1],"loss_changes":[9.829056E0,4.1666546E0,5.6636057E0,2.9909725E0,9.0894175E-1,4.267812E0,4.391852E0,3.1046076E0,2.9398906E0,1.8077469E-1,1.4125444E0,1.5374737E0,0E0,3.6748574E0,0E0,4.0187793E0,1.646538E0,2.1011314E0,0E0,0E0,1.5943198E0,0E0,0E0,1.6156392E-1,1.6162033E0,1.4479406E0,2.5014026E0,2.7373981E0,0E0,9.784632E-1,0E0,2.1238885E0,7.985635E-1,6.289955E-2,0E0,1.9273159E-1,5.7556856E-1,1.7517338E0,9.43607E-1,0E0,0E0,1.8510593E0,0E0,0E0,0E0,0E0,0E0,0E0,0E0,0E0,0E0,0E0,0E0,0E0,0E0,0E0,0E0,0E0,0E0,0E0,0E0,0E0,0E0],"parents":[2147483647,0,0,1,1,2,2,3,3,4,4,5,5,6,6,7,7,8,8,9,9,10,10,11,11,13,13,15,15,16,16,17,17,20,20,23,23,24,24,25,25,26,26,27,27,29,29,31,31,32,32,33,33,35,35,36,36,37,37,38,38,41,41],"right_children":[2,4,6,8,10,12,14,16,18,20,22,24,-1,26,-1,28,30,32,-1,-1,34,-1,-1,36,38,40,42,44,-1,46,-1,48,50,52,-1,54,56,58,60,-1,-1,62,-1,-1,-1,-1,-1,-1,-1,-1,-1,-1,-1,-1,-1,-1,-1,-1,-1,-1,-1,-1,-1],"split_conditions":[6E-1,1E0,8.5E1,1E0,6.9E1,1E0,1E0,1E0,1E0,5.1E1,6E0,6.3E1,2.0595598E-1,8.6E1,4.2425525E-1,1E0,6E0,1E0,-2.7842784E-1,-3.1015652E-1,5E0,1.6832733E-1,-1.6243944E-1,5E0,1E0,1E0,1E0,1E0,3.2294044E-1,5.2E1,7.7447444E-2,1E0,5.9E1,1E0,-2.851929E-1,6E1,6.1E1,1E0,6E0,1.5540457E-2,3.8274455E-1,1.04E2,2.5765046E-1,6.5861106E-2,-1.6043833E-1,-1.20020835E-2,-3.3971044E-1,2.031519E-2,-1.818817E-1,-2.8173503E-1,-2.9406233E-2,-8.078198E-3,7.241548E-2,3.4561526E-2,-7.530954E-2,-1.6025436E-1,3.999823E-2,-2.0384763E-1,7.074153E-2,1.6705789E-1,-1.085468E-1,-1.0059769E-1,1.4832187E-1],"split_indices":[71,22,70,64,70,35,37,51,19,70,69,70,0,70,0,17,69,6,0,0,69,0,0,69,19,64,48,60,0,70,0,56,70,64,0,70,70,38,69,0,0,70,0,0,0,0,0,0,0,0,0,0,0,0,0,0,0,0,0,0,0,0,0],"split_type":[0,0,0,0,0,0,0,0,0,0,0,0,0,0,0,0,0,0,0,0,0,0,0,0,0,0,0,0,0,0,0,0,0,0,0,0,0,0,0,0,0,0,0,0,0,0,0,0,0,0,0,0,0,0,0,0,0,0,0,0,0,0,0],"sum_hessian":[3.799058E2,2.8806757E2,9.183822E1,2.7934567E2,8.721888E0,5.9306747E1,3.2531467E1,1.4600291E2,1.3334276E2,6.0292573E0,2.6926303E0,5.7112022E1,2.194727E0,3.1352177E1,1.1792915E0,1.4120473E2,4.7981925E0,1.3096881E2,2.3739522E0,2.0264463E0,4.002811E0,1.1350297E0,1.5576006E0,8.477031E0,4.863499E1,3.295718E0,2.805646E1,1.3677884E2,4.4258804E0,3.364036E0,1.4341565E0,1.2672112E2,4.247687E0,2.2603695E0,1.7424415E0,4.8283453E0,3.648686E0,4.6097393E1,2.5375967E0,1.6684343E0,1.6272837E0,2.6851892E1,1.2045661E0,1.3271828E2,4.0605707E0,1.2101656E0,2.1538703E0,1.22857956E2,3.8631656E0,2.0346696E0,2.213017E0,1.2084908E0,1.0518787E0,3.7719052E0,1.05644E0,1.8990808E0,1.7496051E0,4.4371815E1,1.7255785E0,1.2967453E0,1.2408513E0,2.4735783E1,2.1161106E0],"tree_param":{"num_deleted":"0","num_feature":"72","num_nodes":"63","size_leaf_vector":"1"}},{"base_weights":[-1.057351E-2,4.390218E-2,-2.5532725E-1,6.42767E-2,-5.6201166E-1,-4.041253E-1,1.13150544E-1,4.579299E-2,6.0011363E-1,-3.7735048E-1,-2.790286E-1,-4.5771128E-1,4.9113747E-1,-3.7010562E-1,2.5165853E-1,7.2137445E-2,-2.2606102E-1,7.728749E-1,2.8244942E-2,-6.467274E-1,1.18992254E-1,-5.0597566E-1,1.2689807E-1,-8.394332E-2,2.937621E-1,4.2378873E-2,-2.0698878E-1,3.426586E-1,-9.422776E-2,8.8064834E-2,-4.0797415E-1,-6.587992E-1,2.8285947E-2,2.643585E-1,1.1424297E0,1.0142785E-1,-9.407491E-2,-2.7057067E-1,-3.651487E-1,-5.4535335E-1,1.3938273E-1,4.3219888E-1,-6.2413935E-2,8.288796E-2,1.373395E-2,-2.0178407E-1,1.3515227E-1,-3.802207E-2,-2.6190624E-1,-1.1737442E-1,1.257425E-1,2.5991192E-1,-6.551698E-2,4.5353433E-1,7.7833764E-2,3.3604432E-2,-2.5097653E-1,-1.785127E-1,1.0509511E-1,2.2081333E-1,7.160429E-2],"categories":[],"categories_nodes":[],"categories_segments":[],"categories_sizes":[],"default_left":[0,0,0,0,0,0,0,0,0,0,0,0,0,0,0,0,0,0,0,0,0,0,0,0,0,0,0,0,0,0,0,0,0,0,0,0,0,0,0,0,0,0,0,0,0,0,0,0,0,0,0,0,0,0,0,0,0,0,0,0,0],"id":3,"left_children":[1,3,5,7,9,11,13,15,17,19,-1,21,23,25,27,29,31,33,35,37,-1,39,-1,-1,-1,-1,-1,41,-1,43,45,47,49,51,53,-1,-1,-1,55,57,-1,59,-1,-1,-1,-1,-1,-1,-1,-1,-1,-1,-1,-1,-1,-1,-1,-1,-1,-1,-1],"loss_changes":[5.0394797E0,3.8547714E0,3.818151E0,2.9453478E0,3.399892E-1,2.586566E0,1.4701997E0,2.102057E0,9.5883226E-1,2.0187488E0,0E0,2.210473E0,1.5016595E0,9.1328555E-1,9.614986E-1,2.0719972E0,2.8771272E0,1.1234326E0,4.5986757E-1,1.4849377E-1,0E0,1.9726019E0,0E0,0E0,0E0,0E0,0E0,8.1801105E-1,0E0,2.0450766E0,2.2856684E0,9.8982716E-1,3.0033677E0,1.4951015E0,9.422169E-1,0E0,0E0,0E0,1.1828873E0,2.1528406E0,0E0,5.902133E-1,0E0,0E0,0E0,0E0,0E0,0E0,0E0,0E0,0E0,0E0,0E0,0E0,0E0,0E0,0E0,0E0,0E0,0E0,0E0],"parents":[2147483647,0,0,1,1,2,2,3,3,4,4,5,5,6,6,7,7,8,8,9,9,11,11,12,12,13,13,14,14,15,15,16,16,17,17,18,18,19,19,21,21,27,27,29,29,30,30,31,31,32,32,33,33,34,34,38,38,39,39,41,41],"right_children":[2,4,6,8,10,12,14,16,18,20,-1,22,24,26,28,30,32,34,36,38,-1,40,-1,-1,-1,-1,-1,42,-1,44,46,48,50,52,54,-1,-1,-1,56,58,-1,60,-1,-1,-1,-1,-1,-1,-1,-1,-1,-1,-1,-1,-1,-1,-1,-1,-1,-1,-1],"split_conditions":[8E-1,1E0,8.7E1,1E0,7.6E1,1E0,9E-1,5E0,6E0,6.9E1,-2.790286E-1,1E0,7.4E1,1E0,1E0,1E0,2E0,5.7E1,1E0,5.1E1,1.18992254E-1,1E0,1.2689807E-1,-8.394332E-2,2.937621E-1,4.2378873E-2,-2.0698878E-1,1E0,-9.422776E-2,2E-1,7.7E1,6E0,5.2E1,1E-1,6.5E1,1.0142785E-1,-9.407491E-2,-2.7057067E-1,5E0,1E0,1.3938273E-1,9.2E1,-6.2413935E-2,8.288796E-2,1.373395E-2,-2.0178407E-1,1.3515227E-1,-3.802207E-2,-2.6190624E-1,-1.1737442E-1,1.257425E-1,2.5991192E-1,-6.551698E-2,4.5353433E-1,7.7833764E-2,3.3604432E-2,-2.5097653E-1,-1.785127E-1,1.0509511E-1,2.2081333E-1,7.160429E-2],"split_indices":[71,22,70,46,70,19,71,67,69,70,0,7,70,64,25,37,66,70,64,70,0,54,0,0,0,0,0,3,0,71,70,67,70,71,70,0,0,0,69,4,0,70,0,0,0,0,0,0,0,0,0,0,0,0,0,0,0,0,0,0,0],"split_type":[0,0,0,0,0,0,0,0,0,0,0,0,0,0,0,0,0,0,0,0,0,0,0,0,0,0,0,0,0,0,0,0,0,0,0,0,0,0,0,0,0,0,0,0,0,0,0,0,0,0,0,0,0,0,0,0,0,0,0,0,0],"sum_hessian":[3.7612604E2,3.083223E2,6.7803734E1,2.9915674E2,9.165558E0,4.8230602E1,1.9573135E1,2.9023068E2,8.926057E0,7.452129E0,1.7134286E0,4.596793E1,2.2626717E0,3.9877465E0,1.5585389E1,2.652599E2,2.4970797E1,6.5851846E0,2.340872E0,5.6501117E0,1.8020173E0,4.398306E1,1.9848709E0,1.042558E0,1.2201136E0,1.7493477E0,2.2383988E0,1.3765553E1,1.8198358E0,2.57533E2,7.7269135E0,8.655105E0,1.6315691E1,3.493452E0,3.0917327E0,1.233605E0,1.107267E0,1.80833E0,3.8417816E0,4.2689228E1,1.2938297E0,1.2025493E1,1.7400603E0,4.6226276E1,2.113067E2,6.0717244E0,1.6551893E0,2.94135E0,5.713755E0,7.8686695E0,8.4470215E0,1.2010309E0,2.2924213E0,1.6777875E0,1.4139451E0,2.2881994E0,1.5535822E0,4.0763447E1,1.9257838E0,3.5881648E0,8.437328E0],"tree_param":{"num_deleted":"0","num_feature":"72","num_nodes":"61","size_leaf_vector":"1"}},{"base_weights":[-8.7670665E-3,4.9067996E-3,-5.858784E-1,2.034089E-2,-4.943396E-1,-2.577719E-1,-2.0712373E-1,1.23848654E-1,-5.0323214E-2,-3.2818383E-1,-2.5853094E-1,3.8580146E-1,-2.6322556E-1,9.004387E-2,8.6586493E-1,-8.015414E-2,2.566176E-1,-5.794945E-1,1.8004355E-1,2.0371618E-2,1.5735772E-1,1.2040393E-1,-5.708572E-1,3.1978238E-1,3.3505848E-1,-6.12988E-2,-2.775286E-1,-2.4045034E-1,-3.395495E-1,1.4723195E-1,-8.630076E-2,2.715366E-2,2.2712632E-1,-2.4668398E-1,-3.4256063E-3,1.3239576E-1,1.3812364E-2,-2.4885733E-2,1.3603434E-1,2.639633E-2,-2.3085071E-1],"categories":[],"categories_nodes":[],"categories_segments":[],"categories_sizes":[],"default_left":[0,0,0,0,0,0,0,0,0,0,0,0,0,0,0,0,0,0,0,0,0,0,0,0,0,0,0,0,0,0,0,0,0,0,0,0,0,0,0,0,0],"id":4,"left_children":[1,3,5,7,9,-1,11,13,15,17,-1,19,-1,21,23,25,-1,27,29,-1,-1,31,33,35,-1,37,-1,-1,39,-1,-1,-1,-1,-1,-1,-1,-1,-1,-1,-1,-1],"loss_changes":[2.9526231E0,2.8312812E0,7.1864915E-1,2.6109698E0,3.8990378E-1,0E0,2.304924E0,3.5534177E0,5.805792E0,1.2797506E0,0E0,1.1079317E-1,0E0,2.8693786E0,4.915557E-1,3.233009E0,0E0,6.8504095E-2,6.9459575E-1,0E0,0E0,2.4869254E0,8.7736607E-1,9.116867E-2,0E0,2.3008704E0,0E0,0E0,9.515783E-1,0E0,0E0,0E0,0E0,0E0,0E0,0E0,0E0,0E0,0E0,0E0,0E0],"parents":[2147483647,0,0,1,1,2,2,3,3,4,4,6,6,7,7,8,8,9,9,11,11,13,13,14,14,15,15,17,17,18,18,21,21,22,22,23,23,25,25,28,28],"right_children":[2,4,6,8,10,-1,12,14,16,18,-1,20,-1,22,24,26,-1,28,30,-1,-1,32,34,36,-1,38,-1,-1,40,-1,-1,-1,-1,-1,-1,-1,-1,-1,-1,-1,-1],"split_conditions":[1E0,1E0,5.4E1,6.1E1,7.6E1,-2.577719E-1,4E-1,1E0,1E0,6.5E1,-2.5853094E-1,3E-1,-2.6322556E-1,1E0,3E-1,1E0,2.566176E-1,5.1E1,6E0,2.0371618E-2,1.5735772E-1,1E0,3E-1,4E0,3.3505848E-1,1E0,-2.775286E-1,-2.4045034E-1,5E0,1.4723195E-1,-8.630076E-2,2.715366E-2,2.2712632E-1,-2.4668398E-1,-3.4256063E-3,1.3239576E-1,1.3812364E-2,-2.4885733E-2,1.3603434E-1,2.639633E-2,-2.3085071E-1],"split_indices":[21,22,70,70,70,0,71,47,8,70,0,71,0,41,71,11,0,70,69,0,0,52,71,69,0,35,0,0,69,0,0,0,0,0,0,0,0,0,0,0,0],"split_type":[0,0,0,0,0,0,0,0,0,0,0,0,0,0,0,0,0,0,0,0,0,0,0,0,0,0,0,0,0,0,0,0,0,0,0,0,0,0,0,0,0],"sum_hessian":[3.7279547E2,3.6513556E2,7.659892E0,3.551165E2,1.001909E1,3.712123E0,3.9477694E0,1.4377065E2,2.1134583E2,8.202858E0,1.8162309E0,2.3199937E0,1.6277757E0,1.3857863E2,5.1920166E0,2.0548927E2,5.856559E0,5.394924E0,2.8079345E0,1.1573489E0,1.1626447E0,1.3327419E2,5.304447E0,2.3510308E0,2.8409855E0,2.0205289E2,3.4363773E0,1.5865924E0,3.8083315E0,1.6574719E0,1.1504626E0,1.2838861E2,4.8855705E0,3.3355532E0,1.968894E0,1.2042054E0,1.1468253E0,1.9470131E2,7.3515773E0,2.3083274E0,1.500004E0],"tree_param":{"num_deleted":"0","num_feature":"72","num_nodes":"41","size_leaf_vector":"1"}},{"base_weights":[-8.215296E-3,5.813962E-3,-4.483244E-1,1.8292859E-1,-2.7075315E-2,-2.2160354E-1,-3.0870122E-1,5.999301E-1,-3.5754554E-2,-8.4347315E-3,-7.6807874E-1,-6.3231736E-1,7.640861E-1,6.949234E-1,-1.2327243E-1,-4.1653654E-1,3.1864005E-1,9.786927E-3,-7.398572E-1,-3.6393437E-1,-3.4922585E-2,-3.0134857E-1,-3.4708527E-1,5.3639695E-2,2.884936E-1,7.5666195E-1,-2.7254991E-2,-5.5351835E-1,2.6006153E-1,5.924883E-1,2.600403E-2,2.6712757E-2,-4.3247426E-1,-2.8015998E-1,-3.5540766E-1,1.3872133E-1,-2.0616731E-1,1.4962648E-1,-2.710304E-1,2.463599E-1,-1.6535468E-2,-1.7590714E-1,-1.5770575E-2,2.1347557E-1,-4.8476096E-2,1.8961239E-1,-5.18167E-2,1.3549913E-2,-1.2301787E-1,4.577155E-2,-1.6546008E-1,1.0725087E-2,-1.6872513E-1,-1.372477E-1,1.7859225E-1],"categories":[],"categories_nodes":[],"categories_segments":[],"categories_sizes":[],"default_left":[0,0,0,0,0,0,0,0,0,0,0,0,0,0,0,0,0,0,0,0,0,0,0,0,0,0,0,0,0,0,0,0,0,0,0,0,0,0,0,0,0,0,0,0,0,0,0,0,0,0,0,0,0,0,0],"id":5,"left_children":[1,3,5,7,9,11,-1,13,15,17,19,21,23,25,-1,27,29,31,33,-1,35,-1,37,-1,-1,39,-1,41,-1,43,45,47,49,-1,51,-1,-1,53,-1,-1,-1,-1,-1,-1,-1,-1,-1,-1,-1,-1,-1,-1,-1,-1,-1],"loss_changes":[2.301542E0,2.1126068E0,1.287935E0,5.2005877E0,4.2205505E0,4.351746E0,0E0,2.1670356E0,5.287719E0,3.9992392E0,2.4041824E0,4.2550707E-1,2.0540702E-1,9.556742E-1,0E0,3.7933617E0,1.6155732E0,2.2065816E0,2.121067E-1,0E0,1.5706213E0,0E0,1.6983123E0,0E0,0E0,9.389343E-1,0E0,2.593727E-1,0E0,1.0550652E0,1.4200485E0,2.3024526E0,8.4107995E-1,0E0,3.489089E-1,0E0,0E0,1.3130883E0,0E0,0E0,0E0,0E0,0E0,0E0,0E0,0E0,0E0,0E0,0E0,0E0,0E0,0E0,0E0,0E0,0E0],"parents":[2147483647,0,0,1,1,2,2,3,3,4,4,5,5,7,7,8,8,9,9,10,10,11,11,12,12,13,13,15,15,16,16,17,17,18,18,20,20,22,22,25,25,27,27,29,29,30,30,31,31,32,32,34,34,37,37],"right_children":[2,4,6,8,10,12,-1,14,16,18,20,22,24,26,-1,28,30,32,34,-1,36,-1,38,-1,-1,40,-1,42,-1,44,46,48,50,-1,52,-1,-1,54,-1,-1,-1,-1,-1,-1,-1,-1,-1,-1,-1,-1,-1,-1,-1,-1,-1],"split_conditions":[1E0,2E-1,8E1,5E1,1E0,6E0,-3.0870122E-1,3E0,5.7E1,1E0,3E-1,1E-1,7.3E1,1E0,-1.2327243E-1,1E0,1E0,1E0,1E0,-3.6393437E-1,6E-1,-3.0134857E-1,6.3E1,5.3639695E-2,2.884936E-1,1E0,-2.7254991E-2,1E0,2.6006153E-1,1E0,5E0,1E0,5.3E1,-2.8015998E-1,5E0,1.3872133E-1,-2.0616731E-1,1E0,-2.710304E-1,2.463599E-1,-1.6535468E-2,-1.7590714E-1,-1.5770575E-2,2.1347557E-1,-4.8476096E-2,1.8961239E-1,-5.18167E-2,1.3549913E-2,-1.2301787E-1,4.577155E-2,-1.6546008E-1,1.0725087E-2,-1.6872513E-1,-1.372477E-1,1.7859225E-1],"split_indices":[53,71,70,70,23,69,0,66,70,21,71,71,70,8,0,26,64,26,64,0,71,0,70,0,0,10,0,66,0,43,69,32,70,0,69,0,0,64,0,0,0,0,0,0,0,0,0,0,0,0,0,0,0,0,0],"split_type":[0,0,0,0,0,0,0,0,0,0,0,0,0,0,0,0,0,0,0,0,0,0,0,0,0,0,0,0,0,0,0,0,0,0,0,0,0,0,0,0,0,0,0,0,0,0,0,0,0,0,0,0,0,0,0],"sum_hessian":[3.713332E2,3.6081827E2,1.0514932E1,5.579426E1,3.0502402E2,8.5559635E0,1.9589677E0,1.859415E1,3.7200108E1,2.9852573E2,6.49829E0,6.2925205E0,2.2634435E0,1.7282555E1,1.3115965E0,1.7847923E1,1.9352182E1,2.9223206E2,6.29365E0,3.6363373E0,2.861953E0,1.6360654E0,4.656455E0,1.051959E0,1.2114844E0,1.6057926E1,1.2246293E0,1.6640543E1,1.2073799E0,9.467684E0,9.884499E0,2.8236523E2,9.866834E0,3.2330284E0,3.060622E0,1.7890594E0,1.0728936E0,2.8463101E0,1.8101447E0,1.4864568E1,1.1933582E0,1.5456812E1,1.1837319E0,8.224994E0,1.24269E0,1.9024166E0,7.9820824E0,2.7177917E2,1.058607E1,1.6208172E0,8.2460165E0,1.3455043E0,1.7151177E0,1.1937076E0,1.6526027E0],"tree_param":{"num_deleted":"0","num_feature":"72","num_nodes":"55","size_leaf_vector":"1"}},{"base_weights":[-1.0083017E-2,2.7802854E-3,-4.5234817E-1,3.7618116E-2,-1.6226669E-1,-2.3500752E-1,-2.0724042E-1,2.2407288E-2,4.785197E-1,-2.788848E-1,9.369498E-2,-5.1591486E-1,2.0340385E-1,3.6771595E-2,-4.1637418E-1,6.084041E-1,3.3722054E-2,-3.2809898E-1,4.2571196E-1,-3.022459E-1,2.0158418E-1,-2.2103107E-1,-2.831989E-1,4.948234E-2,-4.5335454E-1,1.2331579E-1,-5.913813E-1,1.7711064E-1,9.3292356E-1,8.61015E-2,-7.746473E-2,-3.740238E-1,1.0389672E-1,3.5063524E-2,1.6269319E-1,4.4224143E-2,-1.8631893E-1,2.7186805E-1,-7.5599685E-2,5.9447803E-2,-2.0234795E-1,1.0460791E-2,1.290702E-1,-1.7330256E-1,2.2275409E-2,-2.5498945E-1,-5.449852E-3,1.896448E-1,-5.7138927E-2,3.5554942E-1,7.866318E-2,-1.2526266E-1,1.5367174E-1,1.019832E-1,-4.939957E-2,-1.9342586E-2,4.8512615E-2],"categories":[],"categories_nodes":[],"categories_segments":[],"categories_sizes":[],"default_left":[0,0,0,0,0,0,0,0,0,0,0,0,0,0,0,0,0,0,0,0,0,0,0,0,0,0,0,0,0,0,0,0,0,0,0,0,0,0,0,0,0,0,0,0,0,0,0,0,0,0,0,0,0,0,0,0,0],"id":6,"left_children":[1,3,5,7,9,11,-1,13,15,17,19,21,-1,23,25,27,29,31,33,35,37,-1,39,41,43,-1,45,47,49,-1,-1,51,-1,-1,-1,-1,-1,53,-1,55,-1,-1,-1,-1,-1,-1,-1,-1,-1,-1,-1,-1,-1,-1,-1,-1,-1],"loss_changes":[2.1118011E0,2.0846624E0,3.813758E-1,1.9965457E0,1.9124322E0,2.146205E0,0E0,1.8454565E0,5.5329394E-1,1.6538124E0,9.378421E-1,9.5829606E-2,0E0,1.7797854E0,1.5876999E0,9.025192E-1,3.1837827E-1,1.4111524E0,5.494386E-2,7.790972E-1,6.019241E-1,0E0,6.446451E-1,1.519844E0,5.1705766E-1,0E0,1.1814053E0,8.7472284E-1,3.860836E-1,0E0,0E0,1.7266159E0,0E0,0E0,0E0,0E0,0E0,5.0079715E-1,0E0,5.2536123E-2,0E0,0E0,0E0,0E0,0E0,0E0,0E0,0E0,0E0,0E0,0E0,0E0,0E0,0E0,0E0,0E0,0E0],"parents":[2147483647,0,0,1,1,2,2,3,3,4,4,5,5,7,7,8,8,9,9,10,10,11,11,13,13,14,14,15,15,16,16,17,17,18,18,19,19,20,20,22,22,23,23,24,24,26,26,27,27,28,28,31,31,37,37,39,39],"right_children":[2,4,6,8,10,12,-1,14,16,18,20,22,-1,24,26,28,30,32,34,36,38,-1,40,42,44,-1,46,48,50,-1,-1,52,-1,-1,-1,-1,-1,54,-1,56,-1,-1,-1,-1,-1,-1,-1,-1,-1,-1,-1,-1,-1,-1,-1,-1,-1],"split_conditions":[1E0,8E-1,7.1E1,1E0,8.7E1,6.4E1,-2.0724042E-1,1E0,6E0,1E0,9E-1,5.1E1,2.0340385E-1,1E0,4.4E1,5.7E1,1E0,1E0,7.5E1,9.6E1,1E0,-2.2103107E-1,5E0,1E0,1E0,1.2331579E-1,6.4E1,1E-1,6.5E1,8.61015E-2,-7.746473E-2,1E0,1.0389672E-1,3.5063524E-2,1.6269319E-1,4.4224143E-2,-1.8631893E-1,1E0,-7.5599685E-2,1E0,-2.0234795E-1,1.0460791E-2,1.290702E-1,-1.7330256E-1,2.2275409E-2,-2.5498945E-1,-5.449852E-3,1.896448E-1,-5.7138927E-2,3.5554942E-1,7.866318E-2,-1.2526266E-1,1.5367174E-1,1.019832E-1,-4.939957E-2,-1.9342586E-2,4.8512615E-2],"split_indices":[22,71,70,46,70,70,0,4,69,19,71,70,0,30,70,70,64,6,70,70,25,0,69,57,45,0,70,71,70,0,0,58,0,0,0,0,0,3,0,64,0,0,0,0,0,0,0,0,0,0,0,0,0,0,0,0,0],"split_type":[0,0,0,0,0,0,0,0,0,0,0,0,0,0,0,0,0,0,0,0,0,0,0,0,0,0,0,0,0,0,0,0,0,0,0,0,0,0,0,0,0,0,0,0,0,0,0,0,0,0,0,0,0,0,0,0,0],"sum_hessian":[3.699874E2,3.6049606E2,9.491331E0,2.983029E2,6.2193184E1,6.004248E0,3.4870834E0,2.893706E2,8.9322815E0,4.266508E1,1.95281E1,4.924173E0,1.0800753E0,2.8108496E2,8.285631E0,6.628798E0,2.3034835E0,4.037906E1,2.286023E0,3.7959516E0,1.5732148E1,1.4151673E0,3.5090053E0,2.7485602E2,6.2289696E0,1.2110515E0,7.0745797E0,3.5098681E0,3.1189296E0,1.2424448E0,1.0610386E0,3.822176E1,2.1573002E0,1.1753323E0,1.1106907E0,1.7978655E0,1.998086E0,1.396834E1,1.7638084E0,2.322939E0,1.1860664E0,2.6574832E2,9.107696E0,4.96432E0,1.2646497E0,4.542574E0,2.5320058E0,1.2467109E0,2.2631574E0,1.7091366E0,1.409793E0,3.693691E1,1.2848496E0,1.227531E1,1.6930296E0,1.2172899E0,1.1056491E0],"tree_param":{"num_deleted":"0","num_feature":"72","num_nodes":"57","size_leaf_vector":"1"}},{"base_weights":[-7.516065E-3,4.239527E-3,-3.8616505E-1,4.6222545E-2,-8.1269324E-2,-1.8657719E-1,-2.7471E-1,3.1446952E-2,4.6631825E-1,-1.2628001E-1,5.674577E-1,-5.532194E-1,6.3491094E-1,4.5031857E-2,-3.7000573E-1,7.8494865E-1,-1.0316599E-1,-1.7051788E-1,6.46655E-1,4.2678386E-1,8.3173085E-3,-2.6329264E-1,-3.0449346E-1,3.6641978E-2,2.410374E-1,5.868491E-2,-3.428183E-1,-6.4426726E-1,-2.4609491E-2,3.5821524E-1,3.5151088E-1,-7.870587E-2,4.0171877E-2,6.463205E-1,-1.9902912E-1,2.142248E-1,5.21101E-2,-1.1641979E-1,3.3991462E-1,9.478986E-2,-2.401943E-1,2.1582197E-2,-1.0741942E-1,3.1473067E-2,-2.2346668E-1,-7.326804E-2,-2.4761213E-1,1.2849075E-1,-2.062438E-1,-6.0631298E-2,2.0672387E-1,2.966481E-1,4.3449786E-2,-7.2994225E-2,8.969134E-2,1.6491711E-1,-1.4538117E-2,-9.537967E-2,1.7997387E-1],"categories":[],"categories_nodes":[],"categories_segments":[],"categories_sizes":[],"default_left":[0,0,0,0,0,0,0,0,0,0,0,0,0,0,0,0,0,0,0,0,0,0,0,0,0,0,0,0,0,0,0,0,0,0,0,0,0,0,0,0,0,0,0,0,0,0,0,0,0,0,0,0,0,0,0,0,0,0,0],"id":7,"left_children":[1,3,5,7,9,11,-1,13,15,17,19,21,23,25,27,29,31,33,35,-1,37,-1,39,-1,-1,41,43,45,47,49,-1,-1,-1,51,53,-1,-1,-1,55,57,-1,-1,-1,-1,-1,-1,-1,-1,-1,-1,-1,-1,-1,-1,-1,-1,-1,-1,-1],"loss_changes":[1.6411263E0,1.2897379E0,1.0024552E0,1.4806159E0,3.5266864E0,3.1579063E0,0E0,1.2916452E0,1.5530499E0,3.9215956E0,3.7459981E0,2.95779E-1,1.906321E-1,1.2222798E0,7.193016E-1,4.5799613E-1,1.7832695E-1,2.6024575E0,7.504988E-2,0E0,8.887227E-1,0E0,1.1616476E0,0E0,0E0,1.241976E0,1.4941773E0,1.0894573E-1,1.6378165E0,8.750323E-1,0E0,0E0,0E0,5.125793E-1,2.3532133E0,0E0,0E0,0E0,3.255432E-1,1.0102347E0,0E0,0E0,0E0,0E0,0E0,0E0,0E0,0E0,0E0,0E0,0E0,0E0,0E0,0E0,0E0,0E0,0E0,0E0,0E0],"parents":[2147483647,0,0,1,1,2,2,3,3,4,4,5,5,7,7,8,8,9,9,10,10,11,11,12,12,13,13,14,14,15,15,16,16,17,17,18,18,20,20,22,22,25,25,26,26,27,27,28,28,29,29,33,33,34,34,38,38,39,39],"right_children":[2,4,6,8,10,12,-1,14,16,18,20,22,24,26,28,30,32,34,36,-1,38,-1,40,-1,-1,42,44,46,48,50,-1,-1,-1,52,54,-1,-1,-1,56,58,-1,-1,-1,-1,-1,-1,-1,-1,-1,-1,-1,-1,-1,-1,-1,-1,-1,-1,-1],"split_conditions":[1E0,6E0,8E1,1E0,1E0,6E0,-2.7471E-1,1E0,1E0,1E0,8.6E1,1E-1,1E0,1E0,5.4E1,5E0,6.3E1,6.2E1,8E-1,4.2678386E-1,9E-1,-2.6329264E-1,6.3E1,3.6641978E-2,2.410374E-1,1.4E1,3E-1,4.8E1,4E-1,3E-1,3.5151088E-1,-7.870587E-2,4.0171877E-2,1E0,1E0,2.142248E-1,5.21101E-2,-1.1641979E-1,1.02E2,5.9E1,-2.401943E-1,2.1582197E-2,-1.0741942E-1,3.1473067E-2,-2.2346668E-1,-7.326804E-2,-2.4761213E-1,1.2849075E-1,-2.062438E-1,-6.0631298E-2,2.0672387E-1,2.966481E-1,4.3449786E-2,-7.2994225E-2,8.969134E-2,1.6491711E-1,-1.4538117E-2,-9.537967E-2,1.7997387E-1],"split_indices":[53,69,70,1,20,69,0,21,64,8,70,71,64,43,70,69,70,70,71,0,71,0,70,0,0,67,71,70,71,71,0,0,0,64,10,0,0,0,70,70,0,0,0,0,0,0,0,0,0,0,0,0,0,0,0,0,0,0,0],"split_type":[0,0,0,0,0,0,0,0,0,0,0,0,0,0,0,0,0,0,0,0,0,0,0,0,0,0,0,0,0,0,0,0,0,0,0,0,0,0,0,0,0,0,0,0,0,0,0,0,0,0,0,0,0,0,0,0,0,0,0],"sum_hessian":[3.6732166E2,3.5722012E2,1.0101505E1,2.3989584E2,1.17324295E2,8.318505E0,1.7829999E0,2.3278325E2,7.11259E0,1.1046522E2,6.8590765E0,5.9773088E0,2.3411963E0,2.2602261E2,6.760636E0,4.318185E0,2.794405E0,1.0522235E2,5.2428656E0,2.1011977E0,4.757879E0,1.4966373E0,4.4806714E0,1.0058278E0,1.3353684E0,2.1915659E2,6.8660307E0,3.2860513E0,3.4745848E0,2.9687552E0,1.3494297E0,1.6080264E0,1.1863785E0,2.8180187E0,1.0240433E2,4.142456E0,1.1004097E0,2.0896592E0,2.6682198E0,2.9309342E0,1.5497375E0,2.1320253E2,5.954052E0,3.5982497E0,3.2677808E0,1.7559388E0,1.5301125E0,2.2744274E0,1.2001573E0,1.2466732E0,1.722082E0,1.0970018E0,1.7210169E0,9.4511284E1,7.89305E0,1.4626288E0,1.205591E0,1.8169439E0,1.1139902E0],"tree_param":{"num_deleted":"0","num_feature":"72","num_nodes":"59","size_leaf_vector":"1"}},{"base_weights":[-4.9737953E-3,5.4074354E-3,-3.7940696E-1,1.6403882E-2,-3.3807316E-1,-2.430052E-1,-2.1203634E-1,2.9467726E-2,-2.5838935E-1,-4.5790276E-1,1.0440287E-1,-4.8150894E-1,1.8796352E-1,9.250942E-2,-3.791615E-2,-3.963856E-1,2.1260546E-1,-6.414324E-1,-8.48372E-2,-2.0189324E-1,-2.7930772E-1,1.9672121E-1,-6.897972E-2,6.686188E-2,6.3113445E-1,-5.6725975E-2,5.113154E-1,1.3121723E-1,-5.041349E-1,-3.0742353E-1,-3.2696617E-1,1.5109488E-1,-1.3611938E-1,4.3027434E-2,-1.9407903E-1,1.3445046E-2,1.6720602E-1,-2.0610562E-2,2.3225136E-1,-2.4404244E-2,1.1769988E-1,2.0014213E-1,3.3353925E-2,-1.7508867E-1,6.4023025E-2,1.4398843E-2,-1.3434902E-1,-1.9708076E-2,4.0889863E-2],"categories":[],"categories_nodes":[],"categories_segments":[],"categories_sizes":[],"default_left":[0,0,0,0,0,0,0,0,0,0,0,0,0,0,0,0,0,0,0,0,0,0,0,0,0,0,0,0,0,0,0,0,0,0,0,0,0,0,0,0,0,0,0,0,0,0,0,0,0],"id":8,"left_children":[1,3,5,7,9,11,-1,13,15,17,-1,19,21,23,25,27,-1,29,31,-1,33,-1,-1,35,37,39,41,-1,43,-1,45,-1,-1,47,-1,-1,-1,-1,-1,-1,-1,-1,-1,-1,-1,-1,-1,-1,-1],"loss_changes":[1.4265549E0,1.3561156E0,2.703545E-1,1.2548466E0,1.0751013E0,9.654979E-1,0E0,1.4162309E0,2.398796E0,6.244035E-1,0E0,3.5058975E-2,8.8420135E-1,2.3353689E0,1.6969846E0,1.5258131E0,0E0,4.4757771E-1,1.18839E0,0E0,5.6241673E-1,0E0,0E0,1.7635173E0,8.2439685E-1,1.7678804E0,2.654035E-1,0E0,8.84974E-1,0E0,2.496903E-1,0E0,0E0,4.283748E-2,0E0,0E0,0E0,0E0,0E0,0E0,0E0,0E0,0E0,0E0,0E0,0E0,0E0,0E0,0E0],"parents":[2147483647,0,0,1,1,2,2,3,3,4,4,5,5,7,7,8,8,9,9,11,11,12,12,13,13,14,14,15,15,17,17,18,18,20,20,23,23,24,24,25,25,26,26,28,28,30,30,33,33],"right_children":[2,4,6,8,10,12,-1,14,16,18,-1,20,22,24,26,28,-1,30,32,-1,34,-1,-1,36,38,40,42,-1,44,-1,46,-1,-1,48,-1,-1,-1,-1,-1,-1,-1,-1,-1,-1,-1,-1,-1,-1,-1],"split_conditions":[1E0,1E0,7.6E1,1E0,1E0,6.5E1,-2.1203634E-1,1E0,1E0,1E0,1.0440287E-1,5.1E1,7.1E1,1E0,1E0,4E0,2.1260546E-1,5E0,6.1E1,-2.0189324E-1,5E0,1.9672121E-1,-6.897972E-2,1E0,5.3E1,1E0,7.2E1,1.3121723E-1,8.7E1,-3.0742353E-1,6.4E1,1.5109488E-1,-1.3611938E-1,1E0,-1.9407903E-1,1.3445046E-2,1.6720602E-1,-2.0610562E-2,2.3225136E-1,-2.4404244E-2,1.1769988E-1,2.0014213E-1,3.3353925E-2,-1.7508867E-1,6.4023025E-2,1.4398843E-2,-1.3434902E-1,-1.9708076E-2,4.0889863E-2],"split_indices":[22,5,70,16,52,70,0,64,47,64,0,70,70,58,63,69,0,69,70,0,69,0,0,8,70,28,70,0,70,0,70,0,0,64,0,0,0,0,0,0,0,0,0,0,0,0,0,0,0],"split_type":[0,0,0,0,0,0,0,0,0,0,0,0,0,0,0,0,0,0,0,0,0,0,0,0,0,0,0,0,0,0,0,0,0,0,0,0,0,0,0,0,0,0,0,0,0,0,0,0,0],"sum_hessian":[3.654716E2,3.5657114E2,8.900445E0,3.4643243E2,1.0138707E1,7.5126166E0,1.387828E0,3.3156253E2,1.4869926E1,8.914334E0,1.2243727E0,4.7607074E0,2.7519093E0,1.7110788E2,1.6045464E2,1.3529464E1,1.3404629E0,5.4927964E0,3.4215376E0,1.249384E0,3.5113232E0,1.0299213E0,1.721988E0,1.6440366E2,6.704221E0,1.5600845E2,4.446187E0,1.1982131E0,1.2331251E1,1.4575106E0,4.035286E0,1.1776185E0,2.2439191E0,2.3413553E0,1.1699679E0,1.583768E2,6.02685E0,1.2259077E0,5.4783134E0,1.4867555E2,7.332903E0,2.7197487E0,1.7264383E0,1.126939E1,1.0618609E0,1.1306143E0,2.9046717E0,1.2176734E0,1.123682E0],"tree_param":{"num_deleted":"0","num_feature":"72","num_nodes":"49","size_leaf_vector":"1"}},{"base_weights":[-3.5924038E-3,5.7688304E-3,-3.188482E-1,-3.2309976E-3,2.7175498E-1,-1.3805597E-1,-2.4725682E-1,-1.4313247E-2,2.3435062E-1,4.2344603E-1,-1.2572233E-1,-4.6323717E-1,5.3086764E-1,-2.833732E-3,-5.044252E-1,3.2667926E-1,-1.2846854E-1,9.081335E-4,5.32892E-1,-2.3028894E-1,-2.405413E-1,2.6224274E-2,2.1088472E-1,3.423464E-1,-1.7894806E-2,-3.1408623E-1,9.397215E-3,7.500231E-2,9.1221017E-1,7.891474E-1,1.6411851E-1,1.08073026E-1,-2.1580486E-1,2.668971E-2,2.7187127E-1,-1.2235654E-1,-1.8754293E-3,8.5882574E-2,-8.376105E-2,1.4967549E-1,-1.5676098E-1,5.3666122E-2,3.8606748E-1,3.0772918E-1,1.03145145E-1,-9.451799E-2,1.6273694E-1,-1.067205E-1,1.2692833E-1],"categories":[],"categories_nodes":[],"categories_segments":[],"categories_sizes":[],"default_left":[0,0,0,0,0,0,0,0,0,0,0,0,0,0,0,0,0,0,0,0,0,0,0,0,0,0,0,0,0,0,0,0,0,0,0,0,0,0,0,0,0,0,0,0,0,0,0,0,0],"id":9,"left_children":[1,3,5,7,9,11,-1,13,15,17,-1,19,21,23,25,27,-1,-1,29,-1,31,-1,-1,33,35,-1,37,39,41,43,45,47,-1,-1,-1,-1,-1,-1,-1,-1,-1,-1,-1,-1,-1,-1,-1,-1,-1],"loss_changes":[1.0792414E0,8.519536E-1,8.4969056E-1,9.1140556E-1,1.3980392E0,2.1966898E0,0E0,1.8577831E0,1.0836987E0,4.6072388E-1,0E0,2.6062036E-1,1.9797313E-1,1.6899923E0,2.1165001E0,2.0106468E0,0E0,0E0,6.2334776E-1,0E0,9.5402324E-1,0E0,0E0,1.8612779E0,1.4109162E0,0E0,4.6926647E-1,3.03611E0,9.104891E-1,1.14957094E-1,9.9195176E-1,7.2139806E-1,0E0,0E0,0E0,0E0,0E0,0E0,0E0,0E0,0E0,0E0,0E0,0E0,0E0,0E0,0E0,0E0,0E0],"parents":[2147483647,0,0,1,1,2,2,3,3,4,4,5,5,7,7,8,8,9,9,11,11,12,12,13,13,14,14,15,15,18,18,20,20,23,23,24,24,26,26,27,27,28,28,29,29,30,30,31,31],"right_children":[2,4,6,8,10,12,-1,14,16,18,-1,20,22,24,26,28,-1,-1,30,-1,32,-1,-1,34,36,-1,38,40,42,44,46,48,-1,-1,-1,-1,-1,-1,-1,-1,-1,-1,-1,-1,-1,-1,-1,-1,-1],"split_conditions":[1E0,1E0,8E1,1E0,7E-1,6E0,-2.4725682E-1,1E0,8.3E1,5E1,-1.2572233E-1,1E-1,7.3E1,4.2E1,5.3E1,6.9E1,-1.2846854E-1,9.081335E-4,6.5E1,-2.3028894E-1,6.3E1,2.6224274E-2,2.1088472E-1,4.1E1,4.4E1,-3.1408623E-1,6.5E1,6.2E1,1E0,1E0,6.9E1,1E0,-2.1580486E-1,2.668971E-2,2.7187127E-1,-1.2235654E-1,-1.8754293E-3,8.5882574E-2,-8.376105E-2,1.4967549E-1,-1.5676098E-1,5.3666122E-2,3.8606748E-1,3.0772918E-1,1.03145145E-1,-9.451799E-2,1.6273694E-1,-1.067205E-1,1.2692833E-1],"split_indices":[53,46,70,52,71,69,0,23,70,70,0,71,70,70,70,70,0,0,70,0,70,0,0,70,70,0,70,70,64,64,70,64,0,0,0,0,0,0,0,0,0,0,0,0,0,0,0,0,0],"split_type":[0,0,0,0,0,0,0,0,0,0,0,0,0,0,0,0,0,0,0,0,0,0,0,0,0,0,0,0,0,0,0,0,0,0,0,0,0,0,0,0,0,0,0,0,0,0,0,0,0],"sum_hessian":[3.640746E2,3.5452887E2,9.5457115E0,3.4388126E2,1.0647612E1,7.968186E0,1.577526E0,3.294533E2,1.4427949E1,9.047931E0,1.599681E0,5.568622E0,2.3995636E0,3.2289615E2,6.5571656E0,1.31083E1,1.3196491E0,2.081158E0,6.9667726E0,1.318897E0,4.2497253E0,1.0924091E0,1.3071544E0,1.2591224E1,3.1030493E2,2.6847959E0,3.8723698E0,9.956724E0,3.1515756E0,3.4379005E0,3.528872E0,2.9072673E0,1.3424579E0,9.4863615E0,3.1048625E0,8.00985E0,3.0229507E2,1.9804355E0,1.8919343E0,5.921114E0,4.0356107E0,1.5653412E0,1.5862345E0,1.3939028E0,2.0439975E0,1.6307374E0,1.8981347E0,1.123658E0,1.7836095E0],"tree_param":{"num_deleted":"0","num_feature":"72","num_nodes":"49","size_leaf_vector":"1"}},{"base_weights":[-2.8324476E-3,6.799389E-3,-3.6470824E-1,1.6042149E-2,-2.879819E-1,-2.430552E-1,-1.9533595E-1,2.3751711E-2,-3.282604E-1,-3.7433705E-1,6.404855E-2,-4.515072E-1,1.2748408E-1,1.5096395E-2,6.637061E-1,2.2343889E-1,-3.2782808E-1,-5.2847815E-1,-6.508036E-2,-1.8583782E-1,-2.6751164E-1,1.5069811E-1,-7.273254E-2,2.994589E-2,-2.7010405E-1,7.53228E-2,2.7070004E-1,-1.5037373E-1,6.8305147E-1,-2.6460686E-1,-2.5273326E-1,1.14958465E-1,-1.08834594E-1,5.431045E-3,-1.765741E-1,5.1478865E-3,1.1479152E-1,-2.176713E-1,2.1748133E-2,3.4062576E-1,-4.462041E-2,1.6011951E-2,-1.0732326E-1,-2.6664404E-2,3.0067813E-2],"categories":[],"categories_nodes":[],"categories_segments":[],"categories_sizes":[],"default_left":[0,0,0,0,0,0,0,0,0,0,0,0,0,0,0,0,0,0,0,0,0,0,0,0,0,0,0,0,0,0,0,0,0,0,0,0,0,0,0,0,0,0,0,0,0],"id":10,"left_children":[1,3,5,7,9,11,-1,13,15,17,-1,19,21,23,25,27,-1,29,31,-1,33,-1,-1,35,37,-1,-1,-1,39,-1,41,-1,-1,43,-1,-1,-1,-1,-1,-1,-1,-1,-1,-1,-1],"loss_changes":[1.2702783E0,9.7262263E-1,1.7095613E-1,9.2471266E-1,5.499482E-1,6.930382E-1,0E0,1.8665785E0,3.4635115E0,4.2430723E-1,0E0,3.802061E-3,6.4064956E-1,1.4281073E0,2.1631742E-1,2.095582E0,0E0,3.894422E-1,7.183627E-1,0E0,3.868378E-1,0E0,0E0,1.4347327E0,2.657529E0,0E0,0E0,0E0,1.5400778E0,0E0,1.7758524E-1,0E0,0E0,3.892184E-2,0E0,0E0,0E0,0E0,0E0,0E0,0E0,0E0,0E0,0E0,0E0],"parents":[2147483647,0,0,1,1,2,2,3,3,4,4,5,5,7,7,8,8,9,9,11,11,12,12,13,13,14,14,15,15,17,17,18,18,20,20,23,23,24,24,28,28,30,30,33,33],"right_children":[2,4,6,8,10,12,-1,14,16,18,-1,20,22,24,26,28,-1,30,32,-1,34,-1,-1,36,38,-1,-1,-1,40,-1,42,-1,-1,44,-1,-1,-1,-1,-1,-1,-1,-1,-1,-1,-1],"split_conditions":[1E0,1E0,7.6E1,1.4E1,1E0,6.5E1,-1.9533595E-1,1.1E1,4E-1,1E0,6.404855E-2,5.1E1,1E0,6E0,1E0,5.1E1,-3.2782808E-1,5E0,6.1E1,-1.8583782E-1,5E0,1.5069811E-1,-7.273254E-2,1E0,2E0,7.53228E-2,2.7070004E-1,-1.5037373E-1,6.3E1,-2.6460686E-1,6.4E1,1.14958465E-1,-1.08834594E-1,1E0,-1.765741E-1,5.1478865E-3,1.1479152E-1,-2.176713E-1,2.1748133E-2,3.4062576E-1,-4.462041E-2,1.6011951E-2,-1.0732326E-1,-2.6664404E-2,3.0067813E-2],"split_indices":[22,5,70,67,52,70,0,67,71,64,0,70,64,67,28,70,0,69,70,0,69,0,0,63,66,0,0,0,70,0,70,0,0,64,0,0,0,0,0,0,0,0,0,0,0],"split_type":[0,0,0,0,0,0,0,0,0,0,0,0,0,0,0,0,0,0,0,0,0,0,0,0,0,0,0,0,0,0,0,0,0,0,0,0,0,0,0,0,0,0,0,0,0],"sum_hessian":[3.6273206E2,3.542835E2,8.448546E0,3.4442963E2,9.853886E0,7.227356E0,1.2211905E0,3.3779675E2,6.632871E0,8.622592E0,1.2312931E0,4.4854755E0,2.7418804E0,3.3429898E2,3.4977686E0,4.2637086E0,2.3691623E0,5.2813654E0,3.341227E0,1.1076753E0,3.3778002E0,1.1841142E0,1.5577661E0,3.1860522E2,1.5693776E1,2.0335524E0,1.4642162E0,1.6195437E0,2.644165E0,1.3507798E0,3.9305854E0,1.2187985E0,2.1224287E0,2.3570988E0,1.0207014E0,3.084708E2,1.0134432E1,6.257237E0,9.436539E0,1.4762615E0,1.1679035E0,1.1295856E0,2.8009999E0,1.2128285E0,1.1442704E0],"tree_param":{"num_deleted":"0","num_feature":"72","num_nodes":"45","size_leaf_vector":"1"}},{"base_weights":[-4.3577747E-3,3.815108E-3,-3.242949E-1,1.1053473E-2,-3.343286E-1,-1.6733703E-1,-5.010428E-1,1.6891682E-3,2.593688E-1,-5.653434E-1,-4.4777844E-2,-1.21512234E-1,1.5449813E-1,-5.6368314E-2,-1.9728385E-1,-7.412321E-3,2.7794057E-1,7.540538E-5,2.826575E-1,-6.392517E-2,-2.203735E-1,3.1867704E-1,-1.8584853E-1,1.1667039E-3,-3.5162845E-1,4.2018807E-1,-1.0860751E-1,3.874793E-1,-3.9276874E-1,1.086912E-2,1.3567793E-1,-2.7117117E-3,8.860502E-2,1.8138462E-1,-1.8265109E-1,5.080728E-3,1.6046642E-1,3.1511384E-1,-9.363899E-2,-2.6996797E-1,7.8997955E-2],"categories":[],"categories_nodes":[],"categories_segments":[],"categories_sizes":[],"default_left":[0,0,0,0,0,0,0,0,0,0,0,0,0,0,0,0,0,0,0,0,0,0,0,0,0,0,0,0,0,0,0,0,0,0,0,0,0,0,0,0,0],"id":11,"left_children":[1,3,5,7,9,11,13,15,17,19,21,-1,-1,-1,-1,23,25,27,-1,-1,-1,29,-1,31,33,35,-1,37,39,-1,-1,-1,-1,-1,-1,-1,-1,-1,-1,-1,-1],"loss_changes":[9.497283E-1,8.718404E-1,1.6714042E-1,8.092914E-1,4.7405392E-1,1.2293112E0,6.0486794E-2,8.4831655E-1,2.2393243E0,8.5892916E-2,1.116302E0,0E0,0E0,0E0,0E0,9.655112E-1,1.1317577E0,1.6995357E0,0E0,0E0,0E0,1.10203326E-1,0E0,9.630212E-1,2.3235927E0,4.195751E-1,0E0,2.935387E0,2.0818374E0,0E0,0E0,0E0,0E0,0E0,0E0,0E0,0E0,0E0,0E0,0E0,0E0],"parents":[2147483647,0,0,1,1,2,2,3,3,4,4,5,5,6,6,7,7,8,8,9,9,10,10,15,15,16,16,17,17,21,21,23,23,24,24,25,25,27,27,28,28],"right_children":[2,4,6,8,10,12,14,16,18,20,22,-1,-1,-1,-1,24,26,28,-1,-1,-1,30,-1,32,34,36,-1,38,40,-1,-1,-1,-1,-1,-1,-1,-1,-1,-1,-1,-1],"split_conditions":[1E0,1E0,7.1E1,1E0,5.4E1,6.5E1,1E0,1E0,7.5E1,4.8E1,4E-1,-1.21512234E-1,1.5449813E-1,-5.6368314E-2,-1.9728385E-1,1E0,7E-1,6.3E1,2.826575E-1,-6.392517E-2,-2.203735E-1,3E-1,-1.8584853E-1,1E0,1E-1,5E1,-1.0860751E-1,1E0,1E0,1.086912E-2,1.3567793E-1,-2.7117117E-3,8.860502E-2,1.8138462E-1,-1.8265109E-1,5.080728E-3,1.6046642E-1,3.1511384E-1,-9.363899E-2,-2.6996797E-1,7.8997955E-2],"split_indices":[22,21,70,45,70,70,64,46,70,70,71,0,0,0,0,23,71,70,0,0,0,71,0,63,71,70,0,64,64,0,0,0,0,0,0,0,0,0,0,0,0],"split_type":[0,0,0,0,0,0,0,0,0,0,0,0,0,0,0,0,0,0,0,0,0,0,0,0,0,0,0,0,0,0,0,0,0,0,0,0,0,0,0,0,0],"sum_hessian":[3.6173828E2,3.5369122E2,8.047066E0,3.4722577E2,6.465466E0,5.2932463E0,2.753819E0,3.3557748E2,1.1648275E1,3.0664496E0,3.3990166E0,4.227053E0,1.0661931E0,1.6512659E0,1.1025531E0,3.258162E2,9.761303E0,9.167241E0,2.4810343E0,1.7282434E0,1.3382063E0,2.3551261E0,1.0438906E0,3.188656E2,6.9505935E0,8.267153E0,1.4941498E0,4.6224556E0,4.544786E0,1.1643822E0,1.1907438E0,3.0911124E2,9.754344E0,1.186981E0,5.7636127E0,2.0848985E0,6.1822543E0,2.1160536E0,2.506402E0,2.353824E0,2.1909618E0],"tree_param":{"num_deleted":"0","num_feature":"72","num_nodes":"41","size_leaf_vector":"1"}},{"base_weights":[-3.8209378E-3,1.995097E-2,-8.854847E-2,5.6262324E-3,3.9940825E-1,-1.2713227E-1,6.723984E-1,1.9570233E-2,-4.1647905E-1,-3.6133162E-4,2.834985E-1,-9.3034014E-2,-2.8329128E-1,6.611842E-2,2.4934328E-1,3.1426396E-2,-3.275694E-1,1.04516044E-1,-5.847969E-1,3.29943E-1,-3.542025E-1,-1.4358419E-1,3.9404675E-1,4.342472E-2,-4.9130446E-1,-6.392401E-1,2.8965122E-1,-8.7068135E-1,-6.1241337E-3,-1.1436971E-1,2.9366815E-1,-1.4837274E-1,-5.1091076E-3,-1.8104059E-1,5.3364444E-1,7.289661E-1,-2.464802E-1,2.8273428E-2,-2.1843825E-2,9.13473E-2,-2.315491E-1,-3.4206378E-1,-6.83467E-2,-8.004514E-2,-3.2337683E-1,1.5949662E-1,-1.4835057E-1,-7.213293E-2,1.0196693E-1,-6.183981E-2,2.7480456E-1,3.069257E-1,8.241142E-2,-1.3554978E-1,2.2396687E-2],"categories":[],"categories_nodes":[],"categories_segments":[],"categories_sizes":[],"default_left":[0,0,0,0,0,0,0,0,0,0,0,0,0,0,0,0,0,0,0,0,0,0,0,0,0,0,0,0,0,0,0,0,0,0,0,0,0,0,0,0,0,0,0,0,0,0,0,0,0,0,0,0,0,0,0],"id":12,"left_children":[1,3,5,7,9,11,13,15,17,19,-1,21,-1,-1,-1,23,25,-1,27,29,31,33,35,37,39,41,-1,43,45,-1,-1,-1,-1,47,49,51,53,-1,-1,-1,-1,-1,-1,-1,-1,-1,-1,-1,-1,-1,-1,-1,-1,-1,-1],"loss_changes":[7.29877E-1,1.5366479E0,2.4163187E0,1.6198583E0,2.2435043E0,2.040896E0,1.0312438E-1,1.1051925E0,1.3368288E0,9.274077E-1,0E0,1.8896034E0,0E0,0E0,0E0,1.6404462E0,4.1932516E0,0E0,1.249845E0,2.267519E0,1.7287555E-1,1.8260958E0,1.7385911E0,1.5030344E0,1.5462655E0,1.3379107E0,0E0,3.470366E-1,1.1863334E0,0E0,0E0,0E0,0E0,2.104049E0,1.2712455E0,3.902557E-1,2.4755387E-1,0E0,0E0,0E0,0E0,0E0,0E0,0E0,0E0,0E0,0E0,0E0,0E0,0E0,0E0,0E0,0E0,0E0,0E0],"parents":[2147483647,0,0,1,1,2,2,3,3,4,4,5,5,6,6,7,7,8,8,9,9,11,11,15,15,16,16,18,18,19,19,20,20,21,21,22,22,23,23,24,24,25,25,27,27,28,28,33,33,34,34,35,35,36,36],"right_children":[2,4,6,8,10,12,14,16,18,20,-1,22,-1,-1,-1,24,26,-1,28,30,32,34,36,38,40,42,-1,44,46,-1,-1,-1,-1,48,50,52,54,-1,-1,-1,-1,-1,-1,-1,-1,-1,-1,-1,-1,-1,-1,-1,-1,-1,-1],"split_conditions":[6E-1,1E0,1E0,1E0,6.7E1,1E0,7.9E1,1E0,4.4E1,5E0,2.834985E-1,1E0,-2.8329128E-1,6.611842E-2,2.4934328E-1,1E0,7.2E1,1.04516044E-1,6.4E1,4.7E1,6.3E1,1E0,9.5E1,6.7E1,3E-1,4.9E1,2.8965122E-1,4.8E1,6E0,-1.1436971E-1,2.9366815E-1,-1.4837274E-1,-5.1091076E-3,1E0,6E0,8E-1,1E0,2.8273428E-2,-2.1843825E-2,9.13473E-2,-2.315491E-1,-3.4206378E-1,-6.83467E-2,-8.004514E-2,-3.2337683E-1,1.5949662E-1,-1.4835057E-1,-7.213293E-2,1.0196693E-1,-6.183981E-2,2.7480456E-1,3.069257E-1,8.241142E-2,-1.3554978E-1,2.2396687E-2],"split_indices":[71,57,35,4,70,32,70,56,70,69,0,20,0,0,0,19,70,0,70,70,70,47,70,70,71,70,0,70,69,0,0,0,0,19,69,71,64,0,0,0,0,0,0,0,0,0,0,0,0,0,0,0,0,0,0],"split_type":[0,0,0,0,0,0,0,0,0,0,0,0,0,0,0,0,0,0,0,0,0,0,0,0,0,0,0,0,0,0,0,0,0,0,0,0,0,0,0,0,0,0,0,0,0,0,0,0,0,0,0,0,0,0,0],"sum_hessian":[3.6050027E2,2.8211276E2,7.838753E1,2.7282816E2,9.284597E0,7.539743E1,2.9900966E0,2.650268E2,7.801368E0,5.935094E0,3.3495038E0,7.344656E1,1.9508666E0,1.3979644E0,1.5921323E0,2.5715347E2,7.873317E0,1.2141666E0,6.5872016E0,3.1045718E0,2.8305223E0,6.717974E1,6.266827E0,2.5227979E2,4.8736916E0,6.751612E0,1.1217046E0,4.0712466E0,2.515955E0,1.6781037E0,1.4264681E0,1.6688877E0,1.1616344E0,6.435315E1,2.8265922E0,4.0244474E0,2.24238E0,1.756662E2,7.661359E1,1.2479838E0,3.6257079E0,2.2456822E0,4.50593E0,1.6246827E0,2.4465637E0,1.1552408E0,1.3607141E0,5.824932E1,6.1038246E0,1.1202126E0,1.7063797E0,1.682735E0,2.3417125E0,1.1195155E0,1.1228642E0],"tree_param":{"num_deleted":"0","num_feature":"72","num_nodes":"55","size_leaf_vector":"1"}},{"base_weights":[-2.7150365E-3,-7.0558204E-3,4.583767E-1,-2.4087403E-3,-2.2734453E-1,2.0489067E-1,4.6279426E-3,5.6612357E-3,-2.4309412E-1,-1.1631015E-2,1.6191784E-1,-4.5680097E-1,2.5268617E-1,8.880786E-4,-3.739598E-1,2.2989038E-1,-2.6495042E-1,-1.9147912E-1,-2.217195E-1,7.0417416E-3,-5.1153187E-2,-1.6798899E-1,1.6847634E-1,4.8769917E-2,2.78981E-1,5.243999E-2,-1.14306115E-1],"categories":[],"categories_nodes":[],"categories_segments":[],"categories_sizes":[],"default_left":[0,0,0,0,0,0,0,0,0,0,0,0,0,0,0,0,0,0,0,0,0,0,0,0,0,0,0],"id":13,"left_children":[1,3,5,7,-1,-1,-1,9,11,13,15,17,-1,19,21,23,-1,25,-1,-1,-1,-1,-1,-1,-1,-1,-1],"loss_changes":[7.226077E-1,1.2438645E0,3.244449E-1,6.9256574E-1,0E0,0E0,0E0,9.348653E-1,3.067822E0,1.4147481E0,2.6517785E0,6.308148E-1,0E0,1.17458E0,2.1270807E0,1.4116377E0,0E0,5.29361E-1,0E0,0E0,0E0,0E0,0E0,0E0,0E0,0E0,0E0],"parents":[2147483647,0,0,1,1,2,2,3,3,7,7,8,8,9,9,10,10,11,11,13,13,14,14,15,15,17,17],"right_children":[2,4,6,8,-1,-1,-1,10,12,14,16,18,-1,20,22,24,-1,26,-1,-1,-1,-1,-1,-1,-1,-1,-1],"split_conditions":[1.04E2,1.02E2,1E0,1E0,-2.2734453E-1,2.0489067E-1,4.6279426E-3,8.5E1,1E0,1E0,1E0,6.6E1,2.5268617E-1,7.6E1,1E0,1E0,-2.6495042E-1,1E0,-2.217195E-1,7.0417416E-3,-5.1153187E-2,-1.6798899E-1,1.6847634E-1,4.8769917E-2,2.78981E-1,5.243999E-2,-1.14306115E-1],"split_indices":[70,70,20,36,0,0,0,70,29,37,40,70,0,70,11,37,0,64,0,0,0,0,0,0,0,0,0],"split_type":[0,0,0,0,0,0,0,0,0,0,0,0,0,0,0,0,0,0,0,0,0,0,0,0,0,0,0],"sum_hessian":[3.5841727E2,3.5605005E2,2.367209E0,3.5485675E2,1.1932983E0,1.2112145E0,1.1559943E0,3.4428952E2,1.0567256E1,3.1081815E2,3.347135E1,9.31275E0,1.2545065E0,3.0140173E2,9.416408E0,3.215971E1,1.3116452E0,5.665591E0,3.6471586E0,2.6707376E2,3.4327988E1,8.189625E0,1.2267834E0,3.0462343E1,1.697365E0,1.9585546E0,3.707036E0],"tree_param":{"num_deleted":"0","num_feature":"72","num_nodes":"27","size_leaf_vector":"1"}},{"base_weights":[-2.4206084E-3,5.3246357E-3,-2.5686386E-1,1.1725504E-2,-3.0280197E-1,-3.747704E-1,3.37265E-2,5.2992348E-2,-3.2672845E-2,-4.5528194E-1,2.5598174E-2,-7.4968316E-2,-6.562551E-1,6.975247E-2,-4.0397495E-1,-5.1480405E-2,4.2397097E-1,-3.3914503E-2,-2.63494E-1,-3.4066862E-1,7.814495E-2,-2.9723993E-1,8.321024E-4,4.7119904E-2,5.8500576E-1,-7.274543E-1,8.369423E-2,-7.1155734E-2,5.017966E-1,-1.2891021E-1,6.8656087E-1,-1.2896676E-1,1.22418545E-1,2.0928694E-2,-1.7423522E-1,2.0350697E-2,-1.4417559E-1,2.789543E-1,5.517224E-2,-4.0415533E-2,-2.836628E-1,1.02171004E-1,-7.784327E-2,-2.697028E-2,1.1695162E-1,-1.5559764E-2,2.3711641E-1,3.1847778E-1,-1.1781099E-1],"categories":[],"categories_nodes":[],"categories_segments":[],"categories_sizes":[],"default_left":[0,0,0,0,0,0,0,0,0,0,0,0,0,0,0,0,0,0,0,0,0,0,0,0,0,0,0,0,0,0,0,0,0,0,0,0,0,0,0,0,0,0,0,0,0,0,0,0,0],"id":14,"left_children":[1,3,5,7,9,11,-1,13,15,17,-1,19,21,23,25,27,29,31,-1,33,-1,-1,-1,35,37,39,41,43,45,-1,47,-1,-1,-1,-1,-1,-1,-1,-1,-1,-1,-1,-1,-1,-1,-1,-1,-1,-1],"loss_changes":[7.0790523E-1,6.9168884E-1,5.041545E-1,6.297433E-1,4.6127468E-1,6.4903176E-1,0E0,1.391681E0,1.4452382E0,9.118048E-1,0E0,5.464674E-1,9.151448E-1,1.9850278E0,1.0777174E0,1.778246E0,1.7889441E0,8.20611E-1,0E0,3.6563766E-1,0E0,0E0,0E0,1.8517647E0,8.212991E-1,3.8690853E-1,3.9402673E-1,1.3783739E0,9.3915284E-1,0E0,2.6356168E0,0E0,0E0,0E0,0E0,0E0,0E0,0E0,0E0,0E0,0E0,0E0,0E0,0E0,0E0,0E0,0E0,0E0,0E0],"parents":[2147483647,0,0,1,1,2,2,3,3,4,4,5,5,7,7,8,8,9,9,11,11,12,12,13,13,14,14,15,15,16,16,17,17,19,19,23,23,24,24,25,25,26,26,27,27,28,28,30,30],"right_children":[2,4,6,8,10,12,-1,14,16,18,-1,20,22,24,26,28,30,32,-1,34,-1,-1,-1,36,38,40,42,44,46,-1,48,-1,-1,-1,-1,-1,-1,-1,-1,-1,-1,-1,-1,-1,-1,-1,-1,-1,-1],"split_conditions":[1E0,1E0,6.8E1,1E0,5.6E1,6.1E1,3.37265E-2,1E0,1E0,5E0,2.5598174E-2,5.3E1,4E-1,1E0,6.8E1,1E0,5.3E1,4.7E1,-2.63494E-1,4.6E1,7.814495E-2,-2.9723993E-1,8.321024E-4,1E0,7.1E1,5.2E1,7E0,1E0,5.1E1,-1.2891021E-1,1E0,-1.2896676E-1,1.22418545E-1,2.0928694E-2,-1.7423522E-1,2.0350697E-2,-1.4417559E-1,2.789543E-1,5.517224E-2,-4.0415533E-2,-2.836628E-1,1.02171004E-1,-7.784327E-2,-2.697028E-2,1.1695162E-1,-1.5559764E-2,2.3711641E-1,3.1847778E-1,-1.1781099E-1],"split_indices":[5,21,70,64,70,70,0,51,48,69,0,70,71,17,70,15,70,70,0,70,0,0,0,43,70,70,69,9,70,0,18,0,0,0,0,0,0,0,0,0,0,0,0,0,0,0,0,0,0],"split_type":[0,0,0,0,0,0,0,0,0,0,0,0,0,0,0,0,0,0,0,0,0,0,0,0,0,0,0,0,0,0,0,0,0,0,0,0,0,0,0,0,0,0,0,0,0,0,0,0,0],"sum_hessian":[3.5751654E2,3.479054E2,9.611155E0,3.417676E2,6.1377645E0,7.2738776E0,2.3372767E0,1.7703018E2,1.6473744E2,4.282378E0,1.8553866E0,4.135546E0,3.1383314E0,1.7158437E2,5.445818E0,1.5907304E2,5.664398E0,2.6865578E0,1.5958204E0,2.2990167E0,1.8365296E0,1.7477117E0,1.3906198E0,1.6541014E2,6.1742125E0,2.9784586E0,2.467359E0,1.544519E2,4.6211414E0,1.1827902E0,4.481608E0,1.4314464E0,1.2551112E0,1.1104245E0,1.1885922E0,1.6000056E2,5.4095774E0,2.6110895E0,3.5631227E0,1.2362405E0,1.7422183E0,1.4154375E0,1.0519215E0,1.4919043E2,5.261474E0,1.8644583E0,2.7566829E0,3.338049E0,1.1435591E0],"tree_param":{"num_deleted":"0","num_feature":"72","num_nodes":"49","size_leaf_vector":"1"}},{"base_weights":[-3.0354357E-3,4.3264665E-3,-2.6234737E-1,1.2460987E-2,-1.9653349E-1,-5.5570126E-1,-7.1542286E-3,-3.314885E-1,1.8448645E-2,1.9120277E-1,-3.836229E-1,-1.2451886E-2,-2.1836354E-1,-1.4856307E-1,2.5637522E-1,6.9835976E-2,-5.592881E-1,8.225634E-3,2.3832908E-1,-6.530137E-1,-1.1391995E-1,5.050446E-1,-8.165658E-2,-2.2909808E-1,-3.5048973E-2,3.0767795E-1,-1.05678E-3,3.1427157E-1,-9.8330714E-2,-2.0534386E-1,-3.0969694E-1,2.1999177E-1,-4.9853137E-1,1.9173187E-1,3.022045E-2,1.4345606E-1,-9.420196E-2,-2.9973537E-3,8.969098E-2,3.121391E-2,2.2448197E-1,-1.5168515E-1,3.619636E-2,-2.106892E-1,5.1065814E-2],"categories":[],"categories_nodes":[],"categories_segments":[],"categories_sizes":[],"default_left":[0,0,0,0,0,0,0,0,0,0,0,0,0,0,0,0,0,0,0,0,0,0,0,0,0,0,0,0,0,0,0,0,0,0,0,0,0,0,0,0,0,0,0,0,0],"id":15,"left_children":[1,3,5,7,9,11,13,15,17,-1,19,-1,-1,-1,21,-1,23,25,27,29,31,33,-1,-1,-1,35,37,39,-1,41,-1,-1,43,-1,-1,-1,-1,-1,-1,-1,-1,-1,-1,-1,-1],"loss_changes":[6.8356156E-1,5.720072E-1,7.3601675E-1,6.9801074E-1,2.370508E0,3.7575603E-1,9.3715125E-1,8.758948E-1,7.424335E-1,0E0,7.796376E-1,0E0,0E0,0E0,7.617203E-1,0E0,3.1107116E-1,8.828126E-1,7.33985E-1,7.5070286E-1,2.674296E0,1.2966919E-1,0E0,0E0,0E0,1.1623583E0,8.311021E-1,1.1494298E0,0E0,4.3774417E-1,0E0,0E0,8.647008E-1,0E0,0E0,0E0,0E0,0E0,0E0,0E0,0E0,0E0,0E0,0E0,0E0],"parents":[2147483647,0,0,1,1,2,2,3,3,4,4,5,5,6,6,7,7,8,8,10,10,14,14,16,16,17,17,18,18,19,19,20,20,21,21,25,25,26,26,27,27,29,29,32,32],"right_children":[2,4,6,8,10,12,14,16,18,-1,20,-1,-1,-1,22,-1,24,26,28,30,32,34,-1,-1,-1,36,38,40,-1,42,-1,-1,44,-1,-1,-1,-1,-1,-1,-1,-1,-1,-1,-1,-1],"split_conditions":[1E0,1E0,1E0,3.9E1,1E-1,3E-1,5.9E1,1E-1,1E0,1.9120277E-1,6.2E1,-1.2451886E-2,-2.1836354E-1,-1.4856307E-1,7.5E1,6.9835976E-2,1E0,4.2E1,8.3E1,5.1E1,4E-1,6.8E1,-8.165658E-2,-2.2909808E-1,-3.5048973E-2,3E-1,1E0,6.9E1,-9.8330714E-2,4.5E1,-3.0969694E-1,2.1999177E-1,7E0,1.9173187E-1,3.022045E-2,1.4345606E-1,-9.420196E-2,-2.9973537E-3,8.969098E-2,3.121391E-2,2.2448197E-1,-1.5168515E-1,3.619636E-2,-2.106892E-1,5.1065814E-2],"split_indices":[53,60,64,70,71,71,70,71,52,0,70,0,0,0,70,0,64,70,70,70,71,70,0,0,0,71,1,70,0,70,0,0,69,0,0,0,0,0,0,0,0,0,0,0,0],"split_type":[0,0,0,0,0,0,0,0,0,0,0,0,0,0,0,0,0,0,0,0,0,0,0,0,0,0,0,0,0,0,0,0,0,0,0,0,0,0,0,0,0,0,0,0,0],"sum_hessian":[3.5647305E2,3.4758832E2,8.884765E0,3.3496088E2,1.26274395E1,3.5855136E0,5.299251E0,4.8012342E0,3.3015964E2,1.8729403E0,1.0754499E1,1.2107528E0,2.3747609E0,1.5498277E0,3.7494235E0,1.3745322E0,3.426702E0,3.1648267E2,1.3676977E1,4.669336E0,6.0851636E0,2.5800867E0,1.1693369E0,1.8474244E0,1.5792776E0,8.548852E0,3.079338E2,1.2451451E1,1.2255257E0,2.8486524E0,1.8206835E0,1.6168767E0,4.468287E0,1.501487E0,1.0785997E0,6.8899665E0,1.6588848E0,2.9996786E2,7.965946E0,9.223456E0,3.227995E0,1.1960262E0,1.6526262E0,3.3863232E0,1.0819638E0],"tree_param":{"num_deleted":"0","num_feature":"72","num_nodes":"45","size_leaf_vector":"1"}},{"base_weights":[-3.4260463E-3,-1.1032536E-2,2.192428E-1,-2.082674E-2,2.4167806E-1,3.846147E-1,-1.9979025E-1,-9.320129E-3,-2.8613913E-1,7.214203E-1,-1.8419299E-1,1.5788488E-1,2.8075808E-1,2.9787773E-3,-2.4313186E-1,-1.2384302E-1,-2.5195545E-1,4.3360695E-2,8.572363E-1,-5.791585E-1,5.651497E-1,4.180529E-1,-1.8755396E-1,-1.76433E-2,3.1014118E-1,-3.6174938E-1,2.0452653E-1,-3.4009647E-1,5.9308964E-1,3.0181518E-1,1.06628396E-1,-2.1966417E-1,2.489088E-3,-6.1713636E-2,3.0804884E-1,-1.1618803E-2,7.939015E-1,-2.4915654E-3,-1.2265976E-1,6.314725E-2,2.9622242E-1,1.3283186E-1,-1.5614243E-1,6.0033888E-2,-1.7986792E-1,5.1481504E-2,2.213567E-1,1.8227804E-1,-2.7006188E-1,3.341038E-1,7.3385057E-3],"categories":[],"categories_nodes":[],"categories_segments":[],"categories_sizes":[],"default_left":[0,0,0,0,0,0,0,0,0,0,0,0,0,0,0,0,0,0,0,0,0,0,0,0,0,0,0,0,0,0,0,0,0,0,0,0,0,0,0,0,0,0,0,0,0,0,0,0,0,0,0],"id":16,"left_children":[1,3,5,7,9,11,-1,13,15,17,19,21,-1,23,25,27,-1,-1,29,31,33,35,-1,37,39,41,-1,43,45,-1,-1,-1,-1,-1,-1,47,49,-1,-1,-1,-1,-1,-1,-1,-1,-1,-1,-1,-1,-1,-1],"loss_changes":[6.0662216E-1,8.611662E-1,1.988136E0,1.0167195E0,2.7858253E0,1.1774424E0,0E0,9.2399406E-1,1.1402837E0,3.7046337E-1,2.5989347E0,2.0370212E0,0E0,1.9438413E0,2.0081825E0,2.0436776E0,0E0,0E0,8.669138E-3,5.023973E-1,1.3341783E0,1.1625152E0,0E0,1.0476652E0,1.0951204E0,2.1312296E0,0E0,1.4884111E0,6.360793E-2,0E0,0E0,0E0,0E0,0E0,0E0,2.9226816E0,9.135933E-1,0E0,0E0,0E0,0E0,0E0,0E0,0E0,0E0,0E0,0E0,0E0,0E0,0E0,0E0],"parents":[2147483647,0,0,1,1,2,2,3,3,4,4,5,5,7,7,8,8,9,9,10,10,11,11,13,13,14,14,15,15,18,18,19,19,20,20,21,21,23,23,24,24,25,25,27,27,28,28,35,35,36,36],"right_children":[2,4,6,8,10,12,-1,14,16,18,20,22,-1,24,26,28,-1,-1,30,32,34,36,-1,38,40,42,-1,44,46,-1,-1,-1,-1,-1,-1,48,50,-1,-1,-1,-1,-1,-1,-1,-1,-1,-1,-1,-1,-1,-1],"split_conditions":[1E0,1E0,7E-1,1E0,6E1,7.4E1,-1.9979025E-1,9.2E1,7E-1,4.4E1,9E-1,7E1,2.8075808E-1,8.5E1,1E0,7.7E1,-2.5195545E-1,4.3360695E-2,5.4E1,7E0,1E0,5.8E1,-1.8755396E-1,8.3E1,1E0,7E0,2.0452653E-1,5.1E1,8.4E1,3.0181518E-1,1.06628396E-1,-2.1966417E-1,2.489088E-3,-6.1713636E-2,3.0804884E-1,5.3E1,4E-1,-2.4915654E-3,-1.2265976E-1,6.314725E-2,2.9622242E-1,1.3283186E-1,-1.5614243E-1,6.0033888E-2,-1.7986792E-1,5.1481504E-2,2.213567E-1,1.8227804E-1,-2.7006188E-1,3.341038E-1,7.3385057E-3],"split_indices":[12,47,71,16,70,70,0,70,71,70,71,70,0,70,48,70,0,0,70,69,64,70,0,70,37,69,0,70,70,0,0,0,0,0,0,70,71,0,0,0,0,0,0,0,0,0,0,0,0,0,0],"split_type":[0,0,0,0,0,0,0,0,0,0,0,0,0,0,0,0,0,0,0,0,0,0,0,0,0,0,0,0,0,0,0,0,0,0,0,0,0,0,0,0,0,0,0,0,0,0,0,0,0,0,0],"sum_hessian":[3.5572983E2,3.4489835E2,1.0831464E1,3.3291336E2,1.1985004E1,9.602979E0,1.228485E0,3.2006714E2,1.28462E1,5.3096805E0,6.6753244E0,7.7158346E0,1.8871439E0,3.050103E2,1.5056817E1,1.0880674E1,1.9655256E0,1.4052063E0,3.9044743E0,4.520015E0,2.1553097E0,6.141496E0,1.5743388E0,2.867043E2,1.8306015E1,1.3884934E1,1.1718826E0,8.76304E0,2.1176348E0,2.2364051E0,1.6680691E0,3.3902931E0,1.1297214E0,1.0150006E0,1.1403091E0,3.3177342E0,2.8237617E0,2.8101794E2,5.6863823E0,1.7100683E1,1.2053323E0,1.9930948E0,1.189184E1,2.91749E0,5.84555E0,1.1001005E0,1.0175341E0,2.1415915E0,1.1761427E0,1.6787052E0,1.1450565E0],"tree_param":{"num_deleted":"0","num_feature":"72","num_nodes":"51","size_leaf_vector":"1"}},{"base_weights":[-3.9373714E-4,-4.6658632E-3,4.613071E-1,-1.1666815E-3,-1.4287163E-1,1.7807199E-1,3.237751E-2,4.5281337E-3,-2.761675E-1,-2.5352945E-3,5.370032E-1,1.7979677E-1,-2.835578E-1,2.2602638E-3,-1.7941165E-1,2.5743774E-1,1.7152485E-1,-1.3491425E-1,5.822189E-1,3.1187825E-3,-7.60891E-2,-1.2153251E-1,1.9408552E-1,2.8826922E-1,-3.5055254E-2],"categories":[],"categories_nodes":[],"categories_segments":[],"categories_sizes":[],"default_left":[0,0,0,0,0,0,0,0,0,0,0,0,0,0,0,0,0,0,0,0,0,0,0,0,0],"id":17,"left_children":[1,3,5,7,-1,-1,-1,9,11,13,15,17,-1,19,-1,-1,21,-1,23,-1,-1,-1,-1,-1,-1],"loss_changes":[7.021731E-1,5.813363E-1,8.849037E-2,5.5100906E-1,0E0,0E0,0E0,1.2985771E0,2.3474424E0,9.7626424E-1,3.832966E-1,1.5500588E0,0E0,7.0973945E-1,0E0,0E0,1.1842705E0,0E0,1.0488491E0,0E0,0E0,0E0,0E0,0E0,0E0],"parents":[2147483647,0,0,1,1,2,2,3,3,7,7,8,8,9,9,10,10,11,11,13,13,16,16,18,18],"right_children":[2,4,6,8,-1,-1,-1,10,12,14,16,18,-1,20,-1,-1,22,-1,24,-1,-1,-1,-1,-1,-1],"split_conditions":[1.04E2,1E2,1E0,1.4E1,-1.4287163E-1,1.7807199E-1,3.237751E-2,1.1E1,4E-1,1E1,5E0,5.1E1,-2.835578E-1,1E0,-1.7941165E-1,2.5743774E-1,1E0,-1.3491425E-1,6.3E1,3.1187825E-3,-7.60891E-2,-1.2153251E-1,1.9408552E-1,2.8826922E-1,-3.5055254E-2],"split_indices":[70,70,20,67,0,0,0,67,71,67,69,70,0,56,0,0,28,0,70,0,0,0,0,0,0],"split_type":[0,0,0,0,0,0,0,0,0,0,0,0,0,0,0,0,0,0,0,0,0,0,0,0,0],"sum_hessian":[3.539001E2,3.516363E2,2.2638025E0,3.5004138E2,1.5949153E0,1.1526781E0,1.1111245E0,3.4390323E2,6.1381373E0,3.403832E2,3.520038E0,4.085191E0,2.0529463E0,3.3865225E2,1.7309444E0,1.1562036E0,2.3638344E0,1.5472702E0,2.5379207E0,3.2914688E2,9.5053835E0,1.1350577E0,1.2287766E0,1.4032555E0,1.1346651E0],"tree_param":{"num_deleted":"0","num_feature":"72","num_nodes":"25","size_leaf_vector":"1"}},{"base_weights":[-4.9751106E-4,5.5814376E-3,-2.4963818E-1,1.09414095E-2,-2.5923693E-1,-1.179993E-1,-1.2237578E-1,3.1836997E-3,2.1174514E-1,-3.9556083E-1,2.1251976E-2,-3.311945E-1,1.3780187E-1,1.1057665E-2,-2.52746E-1,-4.2584997E-2,7.5872266E-1,-3.1768534E-2,-2.3482272E-1,-1.2357231E-1,-3.317465E-2,1.869052E-2,-2.3007756E-1,6.3624725E-2,-2.920057E-1,1.503792E-1,-2.3882572E-1,8.9562684E-2,2.7257743E-1,-1.1244019E-1,1.006167E-1,8.413749E-3,-6.865871E-2,-1.2942004E-1,2.8853474E-2,-1.8369184E-1,8.394487E-2,8.45024E-2,-2.411001E-2],"categories":[],"categories_nodes":[],"categories_segments":[],"categories_sizes":[],"default_left":[0,0,0,0,0,0,0,0,0,0,0,0,0,0,0,0,0,0,0,0,0,0,0,0,0,0,0,0,0,0,0,0,0,0,0,0,0,0,0],"id":18,"left_children":[1,3,5,7,9,11,-1,13,15,17,-1,19,-1,21,23,25,27,29,-1,-1,-1,31,33,35,-1,37,-1,-1,-1,-1,-1,-1,-1,-1,-1,-1,-1,-1,-1],"loss_changes":[5.377742E-1,4.9495333E-1,1.2808454E-1,5.30192E-1,3.3934093E-1,8.936399E-1,0E0,6.66039E-1,1.7935691E0,6.862E-1,0E0,4.3138444E-2,0E0,5.9375185E-1,2.311064E0,1.5139558E0,9.5489025E-3,5.847865E-1,0E0,0E0,0E0,7.2750014E-1,6.9184774E-1,1.3103207E0,0E0,2.794008E-1,0E0,0E0,0E0,0E0,0E0,0E0,0E0,0E0,0E0,0E0,0E0,0E0,0E0],"parents":[2147483647,0,0,1,1,2,2,3,3,4,4,5,5,7,7,8,8,9,9,11,11,13,13,14,14,15,15,16,16,17,17,21,21,22,22,23,23,25,25],"right_children":[2,4,6,8,10,12,-1,14,16,18,-1,20,-1,22,24,26,28,30,-1,-1,-1,32,34,36,-1,38,-1,-1,-1,-1,-1,-1,-1,-1,-1,-1,-1,-1,-1],"split_conditions":[1E0,1E0,7.1E1,1E0,5.6E1,6.5E1,-1.2237578E-1,1E0,7.3E1,5E0,2.1251976E-2,3E-1,1.3780187E-1,1E0,7.4E1,6.9E1,7.9E1,4.7E1,-2.3482272E-1,-1.2357231E-1,-3.317465E-2,1E0,6.5E1,5.1E1,-2.920057E-1,6.3E1,-2.3882572E-1,8.9562684E-2,2.7257743E-1,-1.1244019E-1,1.006167E-1,8.413749E-3,-6.865871E-2,-1.2942004E-1,2.8853474E-2,-1.8369184E-1,8.394487E-2,8.45024E-2,-2.411001E-2],"split_indices":[22,21,70,45,70,70,0,14,70,69,0,71,0,5,70,70,70,70,0,0,0,40,70,70,0,70,0,0,0,0,0,0,0,0,0,0,0,0,0],"split_type":[0,0,0,0,0,0,0,0,0,0,0,0,0,0,0,0,0,0,0,0,0,0,0,0,0,0,0,0,0,0,0,0,0,0,0,0,0,0,0],"sum_hessian":[3.5316052E2,3.4570306E2,7.4574413E0,3.3978445E2,5.9186153E0,5.0243254E0,2.433116E0,3.281238E2,1.1660648E1,4.048265E0,1.8703504E0,3.9807045E0,1.0436206E0,3.1925827E2,8.865545E0,8.589092E0,3.0715568E0,2.6450503E0,1.4032148E0,2.279585E0,1.7011197E0,3.1035678E2,8.901496E0,6.794316E0,2.0712297E0,7.4751935E0,1.1138983E0,1.4896202E0,1.5819365E0,1.3566898E0,1.2883605E0,2.9990955E2,1.044722E1,5.3054113E0,3.5960839E0,1.2024796E0,5.5918365E0,4.623619E0,2.8515744E0],"tree_param":{"num_deleted":"0","num_feature":"72","num_nodes":"39","size_leaf_vector":"1"}},{"base_weights":[-2.817136E-3,-6.43722E-3,3.8903975E-1,-1.3303091E-3,-2.9696053E-1,1.5253943E-1,2.5758993E-2,7.1246377E-3,-2.3306718E-1,-5.958766E-1,1.4051273E-1,-9.379537E-3,2.709744E-1,1.0425403E-1,-3.8242388E-1,-2.3964524E-1,-3.9116632E-2,-5.648234E-3,7.479243E-2,-6.9956237E-4,-2.7781254E-1,1.6768876E-1,2.0640685E-1,-5.7530314E-1,5.5345308E-2,-3.1840631E-3,6.2277745E-2,-1.3271801E-1,1.3753745E-1,6.435752E-2,-6.3184015E-2,-1.213351E-1,-2.4782702E-1],"categories":[],"categories_nodes":[],"categories_segments":[],"categories_sizes":[],"default_left":[0,0,0,0,0,0,0,0,0,0,0,0,0,0,0,0,0,0,0,0,0,0,0,0,0,0,0,0,0,0,0,0,0],"id":19,"left_children":[1,3,5,7,9,-1,-1,11,13,15,17,19,21,-1,23,-1,-1,-1,-1,25,27,29,-1,31,-1,-1,-1,-1,-1,-1,-1,-1,-1],"loss_changes":[5.043291E-1,5.211221E-1,7.4175835E-2,6.804398E-1,8.7717456E-1,0E0,0E0,1.4622595E0,1.1929259E0,2.5438547E-1,6.1418146E-2,7.3711777E-1,7.3609304E-1,0E0,1.221369E0,0E0,0E0,0E0,0E0,6.372634E-1,1.4036021E0,3.4932613E-1,0E0,2.3651123E-3,0E0,0E0,0E0,0E0,0E0,0E0,0E0,0E0,0E0],"parents":[2147483647,0,0,1,1,2,2,3,3,4,4,7,7,8,8,9,9,10,10,11,11,12,12,14,14,19,19,20,20,21,21,23,23],"right_children":[2,4,6,8,10,-1,-1,12,14,16,18,20,22,-1,24,-1,-1,-1,-1,26,28,30,-1,32,-1,-1,-1,-1,-1,-1,-1,-1,-1],"split_conditions":[1.04E2,8E0,1E0,9.2E1,9.4E1,1.5253943E-1,2.5758993E-2,8.5E1,7E0,1E0,1E0,1E0,1E0,1.0425403E-1,1E0,-2.3964524E-1,-3.9116632E-2,-5.648234E-3,7.479243E-2,1E0,1E0,1E0,2.0640685E-1,1E0,5.5345308E-2,-3.1840631E-3,6.2277745E-2,-1.3271801E-1,1.3753745E-1,6.435752E-2,-6.3184015E-2,-1.213351E-1,-2.4782702E-1],"split_indices":[70,69,20,70,70,0,0,70,69,10,64,37,6,0,19,0,0,0,0,29,11,10,0,6,0,0,0,0,0,0,0,0,0],"split_type":[0,0,0,0,0,0,0,0,0,0,0,0,0,0,0,0,0,0,0,0,0,0,0,0,0,0,0,0,0,0,0,0,0],"sum_hessian":[3.527577E2,3.5050323E2,2.2544746E0,3.4543564E2,5.0675983E0,1.1315991E0,1.1228756E0,3.3421115E2,1.1224477E1,2.7954447E0,2.2721536E0,3.1544412E2,1.8767025E1,2.0252345E0,9.199243E0,1.4480461E0,1.3473985E0,1.2574522E0,1.0147014E0,3.065347E2,8.909414E0,1.6165567E1,2.6014574E0,6.852879E0,2.3463638E0,2.9351352E2,1.3021183E1,7.607933E0,1.3014811E0,1.4769884E1,1.3956828E0,5.6300426E0,1.2228366E0],"tree_param":{"num_deleted":"0","num_feature":"72","num_nodes":"33","size_leaf_vector":"1"}},{"base_weights":[-2.1863459E-3,3.8103757E-3,-2.1854457E-1,-1.3313377E-1,6.8166545E-3,-5.8000896E-2,-2.1057354E-1,1.2128459E-2,-2.9275453E-1,-3.5166246E-1,4.8819643E-1,5.2585453E-3,5.487223E-1,1.0093579E-1,-2.4782439E-1,-1.9477929E-1,-1.5295699E-1,2.579133E-2,1.9259812E-1,9.356365E-3,-1.5472043E-1,2.438495E-1,3.7347246E-2,-1.5038344E-1,4.6157303E-1,1.5843369E-1,-1.8941759E-1,5.173225E-4,9.383398E-2,2.4007295E-1,-2.8012078E-2,-3.7879847E-2,1.2679549E-1],"categories":[],"categories_nodes":[],"categories_segments":[],"categories_sizes":[],"default_left":[0,0,0,0,0,0,0,0,0,0,0,0,0,0,0,0,0,0,0,0,0,0,0,0,0,0,0,0,0,0,0,0,0],"id":20,"left_children":[1,3,5,-1,7,9,-1,11,13,15,17,19,21,23,-1,-1,25,-1,-1,27,-1,-1,-1,-1,29,31,-1,-1,-1,-1,-1,-1,-1],"loss_changes":[4.5895422E-1,4.666533E-1,6.995949E-1,0E0,5.4974025E-1,1.4951799E0,0E0,1.2439233E0,1.3473537E0,2.5239807E-1,1.491878E-1,7.199372E-1,3.7676382E-1,1.177081E0,0E0,0E0,8.2624036E-1,0E0,0E0,7.713468E-1,0E0,0E0,0E0,0E0,6.844318E-1,3.3561262E-1,0E0,0E0,0E0,0E0,0E0,0E0,0E0],"parents":[2147483647,0,0,1,1,2,2,4,4,5,5,7,7,8,8,9,9,10,10,11,11,12,12,13,13,16,16,19,19,24,24,25,25],"right_children":[2,4,6,-1,8,10,-1,12,14,16,18,20,22,24,-1,-1,26,-1,-1,28,-1,-1,-1,-1,30,32,-1,-1,-1,-1,-1,-1,-1],"split_conditions":[1E0,3.7E1,8E1,-1.3313377E-1,1.4E1,6E0,-2.1057354E-1,1.1E1,4E-1,1E-1,7.3E1,1E1,6.1E1,5.4E1,-2.4782439E-1,-1.9477929E-1,6.3E1,2.579133E-2,1.9259812E-1,2E0,-1.5472043E-1,2.438495E-1,3.7347246E-2,-1.5038344E-1,6.3E1,5.9E1,-1.8941759E-1,5.173225E-4,9.383398E-2,2.4007295E-1,-2.8012078E-2,-3.7879847E-2,1.2679549E-1],"split_indices":[53,70,70,0,67,69,0,67,71,71,70,67,70,70,0,0,70,0,0,66,0,0,0,0,70,70,0,0,0,0,0,0,0],"split_type":[0,0,0,0,0,0,0,0,0,0,0,0,0,0,0,0,0,0,0,0,0,0,0,0,0,0,0,0,0,0,0,0,0],"sum_hessian":[3.5209644E2,3.435566E2,8.539844E0,1.3139358E0,3.4224268E2,7.251389E0,1.2884545E0,3.3722275E2,5.0199037E0,4.9475265E0,2.3038623E0,3.3395697E2,3.2657902E0,3.354458E0,1.6654457E0,1.0730083E0,3.8745182E0,1.0684747E0,1.2353878E0,3.3232513E2,1.631828E0,1.448194E0,1.8175962E0,1.1103499E0,2.2441082E0,2.7521343E0,1.122384E0,3.2515234E2,7.172813E0,1.1191193E0,1.124989E0,1.5760373E0,1.1760969E0],"tree_param":{"num_deleted":"0","num_feature":"72","num_nodes":"33","size_leaf_vector":"1"}},{"base_weights":[-2.862756E-3,8.33137E-3,-1.352368E-1,-3.5958665E-3,3.1413037E-1,-4.5926973E-1,3.5092868E-2,3.7346822E-3,-3.7271592E-1,1.4067875E-1,2.639042E-1,7.664041E-2,-6.242018E-1,-2.6357257E-1,2.8002542E-1,2.9736375E-2,-8.910949E-2,1.9159576E-2,-2.160124E-1,3.7872344E-1,-2.5534287E-1,-3.1128258E-2,-9.146446E-1,-4.2508606E-2,-2.3161267E-1,5.807703E-1,-1.21995285E-1,4.3107916E-2,-3.3807972E-1,-5.513186E-2,-2.6529872E-1,-2.0052151E-1,2.5097737E-1,1.02100775E-1,2.871213E-1,-1.4765501E-1,1.3817118E-1,-3.1291088E-1,-7.081761E-2,3.0791175E-1,-4.0568092E-1,2.4108507E-1,2.0241456E-1,2.3228022E-1,-2.14152E-1,1.7030315E-2,-1.1466527E-1,-2.935257E-1,-3.1788014E-2,1.4762998E-1,-2.8264547E-2,1.5192224E-1,-1.8064076E-1,1.383524E-1,6.65599E-3,4.9195837E-2,-2.0228563E-1,-2.8524747E-2,1.3205546E-1,-3.7903447E-2,1.5840964E-1],"categories":[],"categories_nodes":[],"categories_segments":[],"categories_sizes":[],"default_left":[0,0,0,0,0,0,0,0,0,0,0,0,0,0,0,0,0,0,0,0,0,0,0,0,0,0,0,0,0,0,0,0,0,0,0,0,0,0,0,0,0,0,0,0,0,0,0,0,0,0,0,0,0,0,0,0,0,0,0,0,0],"id":21,"left_children":[1,3,5,7,9,11,13,15,17,19,-1,-1,21,23,25,27,29,31,-1,33,-1,35,37,39,-1,41,43,45,47,49,-1,-1,-1,51,-1,-1,-1,-1,-1,53,55,-1,57,59,-1,-1,-1,-1,-1,-1,-1,-1,-1,-1,-1,-1,-1,-1,-1,-1,-1],"loss_changes":[5.2318835E-1,1.189377E0,1.5354633E0,8.525012E-1,1.0770429E0,1.2859137E0,1.4617014E0,7.495955E-1,8.488164E-1,2.8151457E0,0E0,0E0,1.3589382E0,9.8598117E-1,1.3897882E0,1.20708E0,1.7870767E0,2.7267873E0,0E0,1.3752215E0,0E0,1.0616246E0,2.217679E-1,1.0635395E0,0E0,3.781376E-1,1.3179339E0,1.3861216E0,1.1773276E0,1.4627925E0,0E0,0E0,0E0,2.3969283E0,0E0,0E0,0E0,0E0,0E0,1.7903945E-1,7.3079497E-1,0E0,3.045786E-1,5.113075E-1,0E0,0E0,0E0,0E0,0E0,0E0,0E0,0E0,0E0,0E0,0E0,0E0,0E0,0E0,0E0,0E0,0E0],"parents":[2147483647,0,0,1,1,2,2,3,3,4,4,5,5,6,6,7,7,8,8,9,9,12,12,13,13,14,14,15,15,16,16,17,17,19,19,21,21,22,22,23,23,25,25,26,26,27,27,28,28,29,29,33,33,39,39,40,40,42,42,43,43],"right_children":[2,4,6,8,10,12,14,16,18,20,-1,-1,22,24,26,28,30,32,-1,34,-1,36,38,40,-1,42,44,46,48,50,-1,-1,-1,52,-1,-1,-1,-1,-1,54,56,-1,58,60,-1,-1,-1,-1,-1,-1,-1,-1,-1,-1,-1,-1,-1,-1,-1,-1,-1],"split_conditions":[5E0,1E0,2E0,1E0,7.9E1,4.2E1,3E-1,6E-1,5.3E1,7.3E1,2.639042E-1,7.664041E-2,6E0,5E0,1.2E1,1E0,1E0,4.6E1,-2.160124E-1,6.7E1,-2.5534287E-1,1E0,5E-1,1E-1,-2.3161267E-1,6E-1,5E-1,1E0,4.9E1,5E0,-2.6529872E-1,-2.0052151E-1,2.5097737E-1,5.6E1,2.871213E-1,-1.4765501E-1,1.3817118E-1,-3.1291088E-1,-7.081761E-2,3E0,8E0,2.4108507E-1,1E0,1E0,-2.14152E-1,1.7030315E-2,-1.1466527E-1,-2.935257E-1,-3.1788014E-2,1.4762998E-1,-2.8264547E-2,1.5192224E-1,-1.8064076E-1,1.383524E-1,6.65599E-3,4.9195837E-2,-2.0228563E-1,-2.8524747E-2,1.3205546E-1,-3.7903447E-2,1.5840964E-1],"split_indices":[67,58,66,2,70,70,71,71,70,70,0,0,67,69,67,18,32,70,0,70,0,64,71,71,0,71,71,49,70,69,0,0,0,70,0,0,0,0,0,66,67,0,19,64,0,0,0,0,0,0,0,0,0,0,0,0,0,0,0,0,0],"split_type":[0,0,0,0,0,0,0,0,0,0,0,0,0,0,0,0,0,0,0,0,0,0,0,0,0,0,0,0,0,0,0,0,0,0,0,0,0,0,0,0,0,0,0,0,0,0,0,0,0,0,0,0,0,0,0,0,0,0,0,0,0],"sum_hessian":[3.5131308E2,3.247849E2,2.6528166E1,3.1354385E2,1.1241072E1,8.55565E0,1.7972515E1,3.0840887E2,5.1349716E0,9.558325E0,1.6827468E0,1.5012048E0,7.0544453E0,8.063705E0,9.90881E0,2.4146465E2,6.694424E1,2.8566957E0,2.2782757E0,8.206787E0,1.3515375E0,2.683011E0,4.371434E0,6.375481E0,1.6882244E0,5.4140344E0,4.494776E0,2.3384622E2,7.618417E0,6.52266E1,1.7176312E0,1.6506221E0,1.2060736E0,6.3473835E0,1.8594042E0,1.3841442E0,1.2988669E0,3.2243066E0,1.1471274E0,3.3221457E0,3.0533352E0,2.6998732E0,2.7141612E0,3.191744E0,1.3030316E0,2.2740926E2,6.43697E0,1.1714994E0,6.446917E0,3.5753026E0,6.16513E1,4.2108316E0,2.1365516E0,1.7626243E0,1.5595216E0,1.1031721E0,1.9501631E0,1.4722264E0,1.2419348E0,1.7014222E0,1.4903218E0],"tree_param":{"num_deleted":"0","num_feature":"72","num_nodes":"61","size_leaf_vector":"1"}},{"base_weights":[-5.1031625E-3,-8.53622E-3,3.680629E-1,-4.1679577E-3,-2.8330186E-1,1.4306726E-1,2.6081257E-2,4.0299795E-3,-2.1703635E-1,-2.0004982E-1,5.5936433E-2,-1.8345007E-3,3.9333907E-1,1.3713118E-1,-3.7389272E-1,3.682067E-3,-5.0457317E-1,2.0266776E-1,2.2266465E-3,-1.8335992E-1,-6.3545877E-1,2.8192739E-3,-9.841167E-2,-2.913405E-2,-2.280962E-1,-1.5751638E-1,1.76878E-1,-2.5290233E-1,-4.4729777E-2],"categories":[],"categories_nodes":[],"categories_segments":[],"categories_sizes":[],"default_left":[0,0,0,0,0,0,0,0,0,0,0,0,0,0,0,0,0,0,0,0,0,0,0,0,0,0,0,0,0],"id":22,"left_children":[1,3,5,7,9,-1,-1,11,13,-1,-1,15,17,-1,19,21,23,-1,-1,25,27,-1,-1,-1,-1,-1,-1,-1,-1],"loss_changes":[4.5284858E-1,4.1747662E-1,5.7135016E-2,6.0182023E-1,1.1051044E0,0E0,0E0,7.6002604E-1,1.5232084E0,0E0,0E0,9.13296E-1,5.330371E-1,0E0,4.2793489E-1,6.212824E-1,2.9862303E-1,0E0,0E0,2.3501534E0,2.981218E-1,0E0,0E0,0E0,0E0,0E0,0E0,0E0,0E0],"parents":[2147483647,0,0,1,1,2,2,3,3,4,4,7,7,8,8,11,11,12,12,14,14,15,15,16,16,19,19,20,20],"right_children":[2,4,6,8,10,-1,-1,12,14,-1,-1,16,18,-1,20,22,24,-1,-1,26,28,-1,-1,-1,-1,-1,-1,-1,-1],"split_conditions":[1.04E2,9.6E1,1E0,1E0,1E0,1.4306726E-1,2.6081257E-2,9.4E1,1E-1,-2.0004982E-1,5.5936433E-2,8E0,9E-1,1.3713118E-1,5E-1,9.2E1,8.8E1,2.0266776E-1,2.2266465E-3,6.4E1,8.2E1,2.8192739E-3,-9.841167E-2,-2.913405E-2,-2.280962E-1,-1.5751638E-1,1.76878E-1,-2.5290233E-1,-4.4729777E-2],"split_indices":[70,70,20,60,71,0,0,70,71,0,0,69,71,0,71,70,70,0,0,70,70,0,0,0,0,0,0,0,0],"split_type":[0,0,0,0,0,0,0,0,0,0,0,0,0,0,0,0,0,0,0,0,0,0,0,0,0,0,0,0,0],"sum_hessian":[3.5003165E2,3.47809E2,2.2226515E0,3.433653E2,4.4436994E0,1.1003326E0,1.1223187E0,3.3157675E2,1.1788537E1,2.2154095E0,2.2282898E0,3.276366E2,3.9401693E0,1.8638575E0,9.92468E0,3.2506235E2,2.5742438E0,1.8423402E0,2.097829E0,6.7261515E0,3.198528E0,3.2051166E2,4.550707E0,1.5247383E0,1.0495055E0,4.8866544E0,1.839497E0,1.7278739E0,1.470654E0],"tree_param":{"num_deleted":"0","num_feature":"72","num_nodes":"29","size_leaf_vector":"1"}},{"base_weights":[-4.6108137E-3,9.6091826E-4,-2.1216905E-1,-2.2185927E-2,5.192649E-2,-7.329935E-2,-1.9107956E-1,-7.828792E-3,-4.3784752E-1,7.581676E-2,-2.7510533E-1,-3.3414477E-1,4.0033656E-1,5.3567956E-3,-7.2456664E-1,-2.6467127E-1,5.287374E-3,1.0105714E-1,-5.460201E-1,-1.5207872E-1,-1.307792E-1,2.1016378E-2,1.5817921E-1,-1.324187E-2,3.831372E-1,-2.894327E-1,-4.245263E-2,1.3220844E-1,-1.19539134E-1,1.282258E-1,-4.9937278E-1,-2.125357E-1,-6.4191627E-3,-1.1515589E-1,4.5958508E-2,1.1551801E-2,-5.2255575E-2,5.6752716E-3,2.9449925E-1,4.5838386E-2,-1.5790911E-1,-1.8272927E-2,-2.0603718E-1],"categories":[],"categories_nodes":[],"categories_segments":[],"categories_sizes":[],"default_left":[0,0,0,0,0,0,0,0,0,0,0,0,0,0,0,0,0,0,0,0,0,0,0,0,0,0,0,0,0,0,0,0,0,0,0,0,0,0,0,0,0,0,0],"id":23,"left_children":[1,3,5,7,9,11,-1,13,15,17,-1,19,21,23,25,-1,27,29,31,-1,33,-1,-1,35,37,-1,-1,-1,-1,39,41,-1,-1,-1,-1,-1,-1,-1,-1,-1,-1,-1,-1],"loss_changes":[4.0547392E-1,4.0493077E-1,4.939775E-1,1.4054041E0,2.551E0,1.1267816E0,0E0,2.1700752E0,1.5532242E0,1.7117183E0,0E0,1.3498282E-1,1.0180026E-1,1.5934482E0,4.4441366E-1,0E0,1.0425328E0,1.7323488E0,3.489728E-1,0E0,3.4475446E-1,0E0,0E0,1.8091859E0,2.3010423E0,0E0,0E0,0E0,0E0,1.6667755E0,3.387699E-1,0E0,0E0,0E0,0E0,0E0,0E0,0E0,0E0,0E0,0E0,0E0,0E0],"parents":[2147483647,0,0,1,1,2,2,3,3,4,4,5,5,7,7,8,8,9,9,11,11,12,12,13,13,14,14,16,16,17,17,18,18,20,20,23,23,24,24,29,29,30,30],"right_children":[2,4,6,8,10,12,-1,14,16,18,-1,20,22,24,26,-1,28,30,32,-1,34,-1,-1,36,38,-1,-1,-1,-1,40,42,-1,-1,-1,-1,-1,-1,-1,-1,-1,-1,-1,-1],"split_conditions":[1E0,7.1E1,8E1,1E0,1E0,6E0,-1.9107956E-1,1E0,3E-1,1E0,-2.7510533E-1,1E0,7.3E1,1E0,6.4E1,-2.6467127E-1,6.1E1,1E0,8.5E1,-1.5207872E-1,5.9E1,2.1016378E-2,1.5817921E-1,4E-1,4E-1,-2.894327E-1,-4.245263E-2,1.3220844E-1,-1.19539134E-1,1E0,7.8E1,-2.125357E-1,-6.4191627E-3,-1.1515589E-1,4.5958508E-2,1.1551801E-2,-5.2255575E-2,5.6752716E-3,2.9449925E-1,4.5838386E-2,-1.5790911E-1,-1.8272927E-2,-2.0603718E-1],"split_indices":[53,70,70,56,9,69,0,19,71,44,0,64,70,31,70,0,70,40,70,0,70,0,0,71,71,0,0,0,0,31,70,0,0,0,0,0,0,0,0,0,0,0,0],"split_type":[0,0,0,0,0,0,0,0,0,0,0,0,0,0,0,0,0,0,0,0,0,0,0,0,0,0,0,0,0,0,0,0,0,0,0,0,0,0,0,0,0,0,0],"sum_hessian":[3.494405E2,3.4127463E2,8.16587E0,2.350758E2,1.0619882E2,7.0375996E0,1.1282701E0,2.282121E2,6.863713E0,1.0454297E2,1.6558565E0,4.728168E0,2.3094318E0,2.250642E2,3.1479044E0,2.9322536E0,3.9314592E0,1.01269905E2,3.273063E0,1.7492577E0,2.9789102E0,1.0719645E0,1.2374672E0,2.1542354E2,9.640658E0,1.7657614E0,1.382143E0,1.8475502E0,2.083909E0,9.763834E1,3.6315622E0,2.2316906E0,1.0413723E0,1.3891776E0,1.5897328E0,1.6358655E2,5.183698E1,6.6348076E0,3.0058508E0,9.4845085E1,2.7932568E0,1.4842234E0,2.1473389E0],"tree_param":{"num_deleted":"0","num_feature":"72","num_nodes":"43","size_leaf_vector":"1"}},{"base_weights":[-7.96337E-3,-1.9441057E-3,-1.8880269E-1,-6.0711754E-3,1.4048906E-1,-3.051348E-2,-2.4582388E-1,-1.423583E-2,1.9447531E-1,-1.374452E-1,1.2699655E-1,2.4902005E-2,-1.00772314E-1,-3.5101932E-1,4.6559337E-1,2.3687156E-1,-1.3116515E-1,3.734859E-2,-3.5536325E-1,-1.2819074E-1,5.624829E-1,1.6906631E-1,-3.1541032E-1,8.148717E-1,-2.3101039E-1,-2.564932E-1,1.7301111E-1,7.0710364E-3,1.2277501E-1,7.662573E-2,-2.4785833E-1,1.7838322E-1,-4.6522625E-2,-2.46543E-2,3.4271222E-1,3.2522544E-1,2.9566586E-2,-1.1704323E-1,2.9195642E-2,1.338227E-1,-1.3226072E-1],"categories":[],"categories_nodes":[],"categories_segments":[],"categories_sizes":[],"default_left":[0,0,0,0,0,0,0,0,0,0,0,0,0,0,0,0,0,0,0,0,0,0,0,0,0,0,0,0,0,0,0,0,0,0,0,0,0,0,0,0,0],"id":24,"left_children":[1,3,5,7,-1,9,-1,11,13,-1,15,17,19,21,23,-1,25,27,29,31,33,-1,-1,35,37,-1,39,-1,-1,-1,-1,-1,-1,-1,-1,-1,-1,-1,-1,-1,-1],"loss_changes":[3.8012332E-1,6.6132617E-1,1.0979161E0,5.5511695E-1,0E0,7.3384833E-1,0E0,1.1034716E0,2.1251674E0,0E0,1.4914557E0,1.076482E0,1.9166915E0,3.7784593E0,2.4487033E0,0E0,1.6222441E0,1.1096026E0,2.2858098E0,2.0008469E0,1.6685739E0,0E0,0E0,1.129034E0,2.4078242E-1,0E0,1.1264437E0,0E0,0E0,0E0,0E0,0E0,0E0,0E0,0E0,0E0,0E0,0E0,0E0,0E0,0E0],"parents":[2147483647,0,0,1,1,2,2,3,3,5,5,7,7,8,8,10,10,11,11,12,12,13,13,14,14,16,16,17,17,18,18,19,19,20,20,23,23,24,24,26,26],"right_children":[2,4,6,8,-1,10,-1,12,14,-1,16,18,20,22,24,-1,26,28,30,32,34,-1,-1,36,38,-1,40,-1,-1,-1,-1,-1,-1,-1,-1,-1,-1,-1,-1,-1,-1],"split_conditions":[1E0,1.04E2,1E0,1E0,1.4048906E-1,1E-1,-2.4582388E-1,6E0,5.9E1,-1.374452E-1,3E-1,1E0,1E0,1E0,8.4E1,2.3687156E-1,5E0,1E0,1E0,6.2E1,7E-1,1.6906631E-1,-3.1541032E-1,6E-1,1E0,-2.564932E-1,8.5E1,7.0710364E-3,1.2277501E-1,7.662573E-2,-2.4785833E-1,1.7838322E-1,-4.6522625E-2,-2.46543E-2,3.4271222E-1,3.2522544E-1,2.9566586E-2,-1.1704323E-1,2.9195642E-2,1.338227E-1,-1.3226072E-1],"split_indices":[43,70,10,10,0,71,0,69,70,0,71,8,54,64,70,0,69,44,64,70,71,0,0,71,64,0,70,0,0,0,0,0,0,0,0,0,0,0,0,0,0],"split_type":[0,0,0,0,0,0,0,0,0,0,0,0,0,0,0,0,0,0,0,0,0,0,0,0,0,0,0,0,0,0,0,0,0,0,0,0,0,0,0,0,0],"sum_hessian":[3.4854843E2,3.3829886E2,1.0249578E1,3.363341E2,1.9647468E0,9.031078E0,1.2185001E0,3.240696E2,1.2264516E1,1.9172009E0,7.1138773E0,2.236374E2,1.0043219E2,3.974014E0,8.290502E0,1.4174737E0,5.6964035E0,2.1742265E2,6.214749E0,9.7219925E1,3.2122672E0,1.8081295E0,2.1658845E0,5.408761E0,2.8817406E0,1.1497304E0,4.5466733E0,2.1068059E2,6.7420683E0,2.904466E0,3.310283E0,2.7291422E0,9.449078E1,1.927619E0,1.2846482E0,3.558104E0,1.850657E0,1.8141785E0,1.067562E0,3.3360782E0,1.2105949E0],"tree_param":{"num_deleted":"0","num_feature":"72","num_nodes":"41","size_leaf_vector":"1"}},{"base_weights":[-5.4199784E-3,-2.096839E-4,-2.3500712E-1,1.0298181E-2,-1.2516741E-1,-2.3373517E-1,-2.9390264E-2,1.5725629E-4,2.6603353E-1,-3.9423823E-1,1.371889E-2,-1.1559139E-1,2.6437506E-1,7.6561007E-3,-3.419943E-1,1.2232214E-1,2.1058033E-1,5.4779254E-2,-5.3746045E-1,-2.402173E-1,2.2038877E-1,1.5144816E-1,-3.0102305E-2,1.3651512E-2,-2.959977E-1,-1.7429283E-1,-1.8617496E-1,3.250176E-1,-2.2840479E-1,-4.1816854E-3,-8.2605773E-1,-4.168647E-2,-2.0884947E-1,5.106889E-1,-7.8632E-2,6.567642E-3,-7.62926E-2,2.5981836E-2,-1.6168815E-1,-1.1500122E-1,3.427511E-2,3.1648517E-2,2.2690819E-1,-1.2057507E-1,1.1673058E-1,-2.7846992E-1,-8.2684614E-2,-6.335726E-2,1.4742717E-1,2.6867071E-2,2.5530043E-1,-1.9228789E-1,8.216136E-2],"categories":[],"categories_nodes":[],"categories_segments":[],"categories_sizes":[],"default_left":[0,0,0,0,0,0,0,0,0,0,0,0,0,0,0,0,0,0,0,0,0,0,0,0,0,0,0,0,0,0,0,0,0,0,0,0,0,0,0,0,0,0,0,0,0,0,0,0,0,0,0,0,0],"id":25,"left_children":[1,3,5,7,9,-1,11,13,15,17,19,-1,21,23,25,27,-1,-1,29,31,33,-1,-1,35,37,39,-1,41,-1,43,45,47,-1,49,51,-1,-1,-1,-1,-1,-1,-1,-1,-1,-1,-1,-1,-1,-1,-1,-1,-1,-1],"loss_changes":[4.167134E-1,4.4991547E-1,8.419565E-1,8.1970763E-1,9.986681E-1,0E0,7.970993E-1,7.852614E-1,6.693492E-1,8.4847414E-1,1.0236632E0,0E0,4.2212394E-1,5.492383E-1,1.9850087E-1,2.0883262E0,0E0,0E0,1.1553307E0,7.6553893E-1,9.7061795E-1,0E0,0E0,6.561564E-1,5.897821E-1,3.748201E-1,0E0,7.7816737E-1,0E0,7.271686E-1,1.8644094E-2,7.524922E-1,0E0,7.223722E-1,1.3939551E0,0E0,0E0,0E0,0E0,0E0,0E0,0E0,0E0,0E0,0E0,0E0,0E0,0E0,0E0,0E0,0E0,0E0,0E0],"parents":[2147483647,0,0,1,1,2,2,3,3,4,4,6,6,7,7,8,8,9,9,10,10,12,12,13,13,14,14,15,15,18,18,19,19,20,20,23,23,24,24,25,25,27,27,29,29,30,30,31,31,33,33,34,34],"right_children":[2,4,6,8,10,-1,12,14,16,18,20,-1,22,24,26,28,-1,-1,30,32,34,-1,-1,36,38,40,-1,42,-1,44,46,48,-1,50,52,-1,-1,-1,-1,-1,-1,-1,-1,-1,-1,-1,-1,-1,-1,-1,-1,-1,-1],"split_conditions":[1E0,5E0,1E-1,1E0,2E0,-2.3373517E-1,1E0,1E0,7.9E1,4.2E1,3E-1,-1.1559139E-1,6.6E1,1E0,4E-1,7.3E1,2.1058033E-1,5.4779254E-2,6E0,5E0,6.4E1,1.5144816E-1,-3.0102305E-2,1E0,1E0,5.4E1,-1.8617496E-1,6.7E1,-2.2840479E-1,1E0,5E-1,5.1E1,-2.0884947E-1,5E0,6.7E1,6.567642E-3,-7.62926E-2,2.5981836E-2,-1.6168815E-1,-1.1500122E-1,3.427511E-2,3.1648517E-2,2.2690819E-1,-1.2057507E-1,1.1673058E-1,-2.7846992E-1,-8.2684614E-2,-6.335726E-2,1.4742717E-1,2.6867071E-2,2.5530043E-1,-1.9228789E-1,8.216136E-2],"split_indices":[30,67,71,58,66,0,64,21,70,70,71,0,70,2,71,70,0,0,67,69,70,0,0,51,64,70,0,70,0,64,71,70,0,69,70,0,0,0,0,0,0,0,0,0,0,0,0,0,0,0,0,0,0],"split_type":[0,0,0,0,0,0,0,0,0,0,0,0,0,0,0,0,0,0,0,0,0,0,0,0,0,0,0,0,0,0,0,0,0,0,0,0,0,0,0,0,0,0,0,0,0,0,0,0,0,0,0,0,0],"sum_hessian":[3.4740067E2,3.4067035E2,6.730325E0,3.1509146E2,2.5578884E1,1.080884E0,5.6494412E0,3.0403586E2,1.1055617E1,8.082233E0,1.749665E1,2.413606E0,3.2358353E0,2.9847195E2,5.563906E0,9.27754E0,1.7780769E0,1.552903E0,6.5293303E0,7.777759E0,9.718891E0,1.7186133E0,1.5172222E0,2.936295E2,4.842447E0,4.48794E0,1.0759667E0,8.060767E0,1.2167727E0,2.6489708E0,3.8803592E0,6.17879E0,1.5989693E0,4.5721817E0,5.1467094E0,2.8575977E2,7.869723E0,2.130694E0,2.711753E0,2.411977E0,2.0759625E0,6.166855E0,1.8939123E0,1.3061175E0,1.3428534E0,2.6939561E0,1.1864032E0,5.146343E0,1.0324469E0,2.6079905E0,1.9641912E0,1.6678219E0,3.4788873E0],"tree_param":{"num_deleted":"0","num_feature":"72","num_nodes":"53","size_leaf_vector":"1"}},{"base_weights":[-6.3773734E-3,-7.8935584E-4,-1.7617795E-1,-4.076115E-3,1.1160083E-1,-4.364588E-2,-2.1769913E-1,8.111986E-2,-1.8949542E-2,-3.5139596E-1,1.3613303E-1,1.5174573E-3,2.5455078E-1,-8.866541E-3,-4.7754264E-1,1.7721353E-2,-2.2704653E-1,3.0441996E-1,-1.14195056E-1,5.5200867E-2,-3.0327806E-1,2.6147936E-3,-3.1801185E-1,-2.8323007E-1,1.5222357E-1,4.807943E-2,1.8794504E-1,1.2926897E-3,3.1364873E-1,-2.7351095E-3,9.087722E-2,-1.2996158E-1,5.4753374E-2,-8.221628E-2,1.4187473E-1,9.763099E-2,-4.487389E-2],"categories":[],"categories_nodes":[],"categories_segments":[],"categories_sizes":[],"default_left":[0,0,0,0,0,0,0,0,0,0,0,0,0,0,0,0,0,0,0,0,0,0,0,0,0,0,0,0,0,0,0,0,0,0,0,0,0],"id":26,"left_children":[1,3,5,7,-1,9,-1,11,13,15,17,19,-1,21,23,-1,-1,25,-1,27,-1,29,31,-1,33,35,-1,-1,-1,-1,-1,-1,-1,-1,-1,-1,-1],"loss_changes":[3.292224E-1,4.1451105E-1,7.733964E-1,4.261682E-1,0E0,5.994843E-1,0E0,3.0527718E0,1.3187325E0,7.030355E-1,7.259318E-1,2.5722458E0,0E0,9.981161E-1,1.9467169E0,0E0,0E0,4.526108E-1,0E0,2.2591865E0,0E0,9.607243E-1,6.596426E-1,0E0,6.0431993E-1,2.865477E-1,0E0,0E0,0E0,0E0,0E0,0E0,0E0,0E0,0E0,0E0,0E0],"parents":[2147483647,0,0,1,1,2,2,3,3,5,5,7,7,8,8,9,9,10,10,11,11,13,13,14,14,17,17,19,19,21,21,22,22,24,24,25,25],"right_children":[2,4,6,8,-1,10,-1,12,14,16,18,20,-1,22,24,-1,-1,26,-1,28,-1,30,32,-1,34,36,-1,-1,-1,-1,-1,-1,-1,-1,-1,-1,-1],"split_conditions":[1E0,1.04E2,1E0,1E-1,1.1160083E-1,5E0,-2.1769913E-1,1E0,1E0,3E-1,8.5E1,1E0,2.5455078E-1,1E0,3E-1,1.7721353E-2,-2.2704653E-1,7.4E1,-1.14195056E-1,1E0,-3.0327806E-1,1E0,7.1E1,-2.8323007E-1,1E0,6.2E1,1.8794504E-1,1.2926897E-3,3.1364873E-1,-2.7351095E-3,9.087722E-2,-1.2996158E-1,5.4753374E-2,-8.221628E-2,1.4187473E-1,9.763099E-2,-4.487389E-2],"split_indices":[43,70,10,71,0,69,0,26,23,71,70,41,0,26,71,0,0,70,0,25,0,48,70,0,64,70,0,0,0,0,0,0,0,0,0,0,0],"split_type":[0,0,0,0,0,0,0,0,0,0,0,0,0,0,0,0,0,0,0,0,0,0,0,0,0,0,0,0,0,0,0,0,0,0,0,0,0],"sum_hessian":[3.46117E2,3.360621E2,1.0054918E1,3.341055E2,1.9566085E0,8.970683E0,1.0842348E0,4.8996468E1,2.85109E2,2.955973E0,6.01471E0,4.529943E1,3.6970384E0,2.7997266E2,5.136372E0,1.893364E0,1.062609E0,4.847189E0,1.1675214E0,4.391631E1,1.3831218E0,2.7090314E2,9.069518E0,2.663793E0,2.472579E0,3.338921E0,1.5082676E0,4.2724995E1,1.1913142E0,2.6165115E2,9.251973E0,7.482049E0,1.5874691E0,1.1239738E0,1.3486053E0,1.1203626E0,2.2185585E0],"tree_param":{"num_deleted":"0","num_feature":"72","num_nodes":"37","size_leaf_vector":"1"}},{"base_weights":[-5.2769156E-3,-1.1859945E-1,-2.717916E-3,2.1165344E-3,-3.0048773E-1,-2.7264482E-3,4.041267E-1,1.0165834E-3,-2.1013433E-1,1.006167E-3,-1.4617269E-1,1.8193723E-1,2.3910506E-2,-1.9695938E-1,4.25042E-1,8.37169E-2,-1.5454253E-2,2.08423E-1,-1.8892396E-2,1.1762043E-2,3.4087384E-1,-1.4001917E-3,-1.151111E-1],"categories":[],"categories_nodes":[],"categories_segments":[],"categories_sizes":[],"default_left":[0,0,0,0,0,0,0,0,0,0,0,0,0,0,0,0,0,0,0,0,0,0,0],"id":27,"left_children":[1,-1,3,5,7,9,11,13,-1,15,-1,-1,-1,-1,17,19,21,-1,-1,-1,-1,-1,-1],"loss_changes":[3.4440038E-1,0E0,4.9708942E-1,6.6373813E-1,6.6596055E-1,6.1048585E-1,2.1803993E-1,1.4344752E0,0E0,4.583486E-1,0E0,0E0,0E0,0E0,4.552427E-1,2.5731916E0,1.1137619E0,0E0,0E0,0E0,0E0,0E0,0E0],"parents":[2147483647,0,0,2,2,3,3,4,4,5,5,6,6,7,7,9,9,14,14,15,15,16,16],"right_children":[2,-1,4,6,8,10,12,14,-1,16,-1,-1,-1,-1,18,20,22,-1,-1,-1,-1,-1,-1],"split_conditions":[3.7E1,-1.1859945E-1,1.4E1,1.1E1,4E-1,1E1,6.1E1,5.1E1,-2.1013433E-1,5E1,-1.4617269E-1,1.8193723E-1,2.3910506E-2,-1.9695938E-1,6.3E1,1E0,1E0,2.08423E-1,-1.8892396E-2,1.1762043E-2,3.4087384E-1,-1.4001917E-3,-1.151111E-1],"split_indices":[70,0,67,67,71,67,70,70,0,70,0,0,0,0,70,38,11,0,0,0,0,0,0],"split_type":[0,0,0,0,0,0,0,0,0,0,0,0,0,0,0,0,0,0,0,0,0,0,0],"sum_hessian":[3.451153E2,1.2490079E0,3.4386627E2,3.3934964E2,4.5166287E0,3.362916E2,3.0580585E0,3.144015E0,1.3726139E0,3.3471097E2,1.5806246E0,1.348022E0,1.7100366E0,1.0176255E0,2.1263897E0,5.4877117E1,2.7983386E2,1.0966967E0,1.0296929E0,5.3645756E1,1.2313591E0,2.7285394E2,6.979902E0],"tree_param":{"num_deleted":"0","num_feature":"72","num_nodes":"23","size_leaf_vector":"1"}},{"base_weights":[-3.9249025E-3,2.4177514E-3,-1.474507E-1,7.418705E-3,-1.9720457E-1,-2.4353093E-1,1.6943817E-1,1.4183512E-4,1.8903188E-1,-1.1638185E-1,-9.83016E-2,1.378168E-1,-3.6736113E-1,7.2646504E-3,-2.2669089E-1,-5.7569273E-2,2.2465457E-1,6.286911E-2,-2.922315E-1,2.5135064E-2,-4.6775737E-1,1.2917816E-2,-2.624861E-1,2.660044E-1,-5.0873184E-1,1.0451995E-1,-2.1119772E-1,1.2294081E-2,-1.6619876E-1,-5.626641E-1,3.693137E-2,-4.0448685E-3,2.1005938E-2,4.813492E-2,-1.1403943E-1,-1.630402E-1,2.3294161E-1,-6.532685E-2,-2.4860714E-1,-4.864934E-2,7.21685E-2,-5.0417367E-2,-2.1373995E-1],"categories":[],"categories_nodes":[],"categories_segments":[],"categories_sizes":[],"default_left":[0,0,0,0,0,0,0,0,0,0,0,0,0,0,0,0,0,0,0,0,0,0,0,0,0,0,0,0,0,0,0,0,0,0,0,0,0,0,0,0,0,0,0],"id":28,"left_children":[1,3,5,7,9,11,-1,13,15,-1,17,-1,19,21,23,25,-1,-1,27,-1,29,31,33,35,37,39,-1,-1,-1,41,-1,-1,-1,-1,-1,-1,-1,-1,-1,-1,-1,-1,-1],"loss_changes":[3.1462353E-1,3.3249503E-1,1.1384686E0,4.2876458E-1,1.1542705E-1,1.351376E0,0E0,5.07286E-1,1.7685684E0,0E0,4.6126384E-1,0E0,5.875672E-1,4.6757966E-1,1.4636528E0,1.0799974E0,0E0,0E0,4.1767508E-1,0E0,6.331353E-1,4.5184973E-1,3.742188E-1,2.1312687E0,4.1747868E-1,3.4921694E-1,0E0,0E0,0E0,4.0301275E-1,0E0,0E0,0E0,0E0,0E0,0E0,0E0,0E0,0E0,0E0,0E0,0E0,0E0],"parents":[2147483647,0,0,1,1,2,2,3,3,4,4,5,5,7,7,8,8,10,10,12,12,13,13,14,14,15,15,18,18,20,20,21,21,22,22,23,23,24,24,25,25,29,29],"right_children":[2,4,6,8,10,12,-1,14,16,-1,18,-1,20,22,24,26,-1,-1,28,-1,30,32,34,36,38,40,-1,-1,-1,42,-1,-1,-1,-1,-1,-1,-1,-1,-1,-1,-1,-1,-1],"split_conditions":[1E0,1E0,8.8E1,1E0,4E0,4E0,1.6943817E-1,1E0,7.3E1,-1.1638185E-1,4E-1,1.378168E-1,1E-1,1E0,5.7E1,6.9E1,2.2465457E-1,6.286911E-2,1E0,2.5135064E-2,1E0,7.1E1,3E-1,5.1E1,7.4E1,5.2E1,-2.1119772E-1,1.2294081E-2,-1.6619876E-1,5.7E1,3.693137E-2,-4.0448685E-3,2.1005938E-2,4.813492E-2,-1.1403943E-1,-1.630402E-1,2.3294161E-1,-6.532685E-2,-2.4860714E-1,-4.864934E-2,7.21685E-2,-5.0417367E-2,-2.1373995E-1],"split_indices":[16,22,70,45,69,69,0,14,70,0,71,0,71,30,70,70,0,0,64,0,50,70,71,70,70,70,0,0,0,70,0,0,0,0,0,0,0,0,0,0,0,0,0],"split_type":[0,0,0,0,0,0,0,0,0,0,0,0,0,0,0,0,0,0,0,0,0,0,0,0,0,0,0,0,0,0,0,0,0,0,0,0,0,0,0,0,0,0,0],"sum_hessian":[3.442215E2,3.3059506E2,1.3626414E1,3.2345468E2,7.1403756E0,1.2586591E1,1.0398237E0,3.1195602E2,1.1498661E1,1.4403085E0,5.700067E0,1.4793351E0,1.1107256E1,3.0339697E2,8.55905E0,8.605204E0,2.893458E0,2.171762E0,3.5283053E0,2.0519593E0,9.055297E0,2.9810178E2,5.2952056E0,3.1366017E0,5.4224477E0,7.550294E0,1.05491E0,1.9233859E0,1.6049193E0,7.8432107E0,1.2120862E0,2.043745E2,9.372729E1,1.0731999E0,4.222006E0,1.1880348E0,1.9485668E0,3.719997E0,1.702451E0,2.4856398E0,5.064654E0,2.7420435E0,5.1011667E0],"tree_param":{"num_deleted":"0","num_feature":"72","num_nodes":"43","size_leaf_vector":"1"}},{"base_weights":[-4.2341417E-3,-9.64427E-3,1.441479E-1,-1.5712945E-2,1.6592921E-1,-1.8899417E-1,8.206644E-1,-2.4480341E-2,2.0179644E-1,3.0441514E-1,-1.801607E-1,2.3677076E-1,-5.617848E-1,3.4234354E-1,5.61296E-2,-3.3739906E-2,1.6435786E-1,5.629339E-1,-1.273969E-1,5.0294006E-1,-1.8642605E-3,-7.6239485E-1,-3.704613E-2,-9.228793E-3,-1.306866E-1,-1.85679E-1,3.0075032E-1,3.951972E-2,1.9877881E-1,-2.6818326E-1,2.4396655E-1,-1.6270595E-2,2.3069927E-1,1.2526442E-1,-2.3298943E-1,-8.6734675E-2,-3.0698252E-1,-1.2336114E-2,6.791699E-2,-2.5088632E-2,-3.111185E-1,1.1325057E-1,-8.911815E-2,-5.1613603E-2,2.3250492E-1,-3.4138493E-3,-1.2667902E-1],"categories":[],"categories_nodes":[],"categories_segments":[],"categories_sizes":[],"default_left":[0,0,0,0,0,0,0,0,0,0,0,0,0,0,0,0,0,0,0,0,0,0,0,0,0,0,0,0,0,0,0,0,0,0,0,0,0,0,0,0,0,0,0,0,0,0,0],"id":29,"left_children":[1,3,5,7,9,11,13,15,17,19,-1,-1,21,-1,-1,23,25,27,29,31,33,35,-1,37,39,-1,41,-1,-1,-1,43,-1,-1,-1,45,-1,-1,-1,-1,-1,-1,-1,-1,-1,-1,-1,-1],"loss_changes":[2.779594E-1,3.5777837E-1,2.900702E0,6.211169E-1,1.37411E0,3.7165227E0,6.4066553E-1,5.5019903E-1,1.572948E0,6.1928093E-1,0E0,0E0,5.286448E-1,0E0,0E0,7.0634544E-1,1.7598133E0,1.7942393E-1,2.3307447E0,9.5691264E-1,5.815464E-1,2.8023386E-1,0E0,1.803288E0,2.4729767E0,0E0,7.1864116E-1,0E0,0E0,0E0,1.411385E0,0E0,0E0,0E0,1.5721281E-1,0E0,0E0,0E0,0E0,0E0,0E0,0E0,0E0,0E0,0E0,0E0,0E0],"parents":[2147483647,0,0,1,1,2,2,3,3,4,4,5,5,6,6,7,7,8,8,9,9,12,12,15,15,16,16,17,17,18,18,19,19,20,20,21,21,23,23,24,24,26,26,30,30,34,34],"right_children":[2,4,6,8,10,12,14,16,18,20,-1,-1,22,-1,-1,24,26,28,30,32,34,36,-1,38,40,-1,42,-1,-1,-1,44,-1,-1,-1,46,-1,-1,-1,-1,-1,-1,-1,-1,-1,-1,-1,-1],"split_conditions":[1E0,1E0,5E-1,1E0,7E-1,1E-1,6E-1,1E0,6E1,1E0,-1.801607E-1,2.3677076E-1,4E-1,3.4234354E-1,5.61296E-2,7.6E1,4.6E1,4.4E1,6.6E1,6.3E1,5E0,5E0,-3.704613E-2,7.2E1,1E0,-1.85679E-1,9.2E1,3.951972E-2,1.9877881E-1,-2.6818326E-1,9E-1,-1.6270595E-2,2.3069927E-1,1.2526442E-1,6E0,-8.6734675E-2,-3.0698252E-1,-1.2336114E-2,6.791699E-2,-2.5088632E-2,-3.111185E-1,1.1325057E-1,-8.911815E-2,-5.1613603E-2,2.3250492E-1,-3.4138493E-3,-1.2667902E-1],"split_indices":[63,12,71,47,71,71,71,6,70,64,0,0,71,0,0,70,70,70,70,70,69,69,0,70,34,0,70,0,0,0,71,0,0,0,69,0,0,0,0,0,0,0,0,0,0,0,0],"split_type":[0,0,0,0,0,0,0,0,0,0,0,0,0,0,0,0,0,0,0,0,0,0,0,0,0,0,0,0,0,0,0,0,0,0,0,0,0,0,0,0,0,0,0,0,0,0,0],"sum_hessian":[3.4352036E2,3.3233807E2,1.1182306E1,3.2211472E2,1.0223349E1,7.9755054E0,3.2068014E0,3.10487E2,1.1627699E1,9.169435E0,1.0539138E0,1.8924571E0,6.0830483E0,1.5975534E0,1.609248E0,2.9675705E2,1.372997E1,5.2062287E0,6.4214697E0,5.1737833E0,3.9956515E0,3.6657705E0,2.4172778E0,2.3774338E2,5.9013664E1,1.5115328E0,1.2218437E1,1.4132782E0,3.7929509E0,1.6364361E0,4.7850337E0,1.9294006E0,3.2443829E0,1.1330212E0,2.8626301E0,2.051765E0,1.6140056E0,2.1012756E2,2.7615814E1,5.713933E1,1.8743327E0,1.1154821E1,1.0636156E0,3.0622034E0,1.72283E0,1.8070184E0,1.0556118E0],"tree_param":{"num_deleted":"0","num_feature":"72","num_nodes":"47","size_leaf_vector":"1"}},{"base_weights":[-3.552342E-3,-9.407247E-3,1.2820596E-1,1.8497914E-1,-1.831847E-2,-1.4244743E-1,2.5179896E-1,-4.0516965E-3,5.857163E-1,-3.6724612E-1,-8.027292E-3,-1.6029105E-1,8.977032E-2,3.4934995E-1,-6.172044E-2,1.325454E-1,-2.4486338E-1,3.7269348E-3,2.2169524E-1,-5.9350944E-1,9.117224E-2,4.0736557E-3,-2.2176181E-1,-1.3879395E-1,2.732771E-1,-4.712967E-2,2.0708153E-1,1.04687616E-1,-1.8027836E-1,-2.6472881E-2,-2.478265E-1,1.39130205E-2,-2.6532635E-1,-2.0563722E-1,-6.95277E-2,-3.0872944E-1,2.415362E-1,1.07508466E-1,-5.2289825E-2,7.7476315E-3,-9.562243E-2,4.571478E-2,-2.0187779E-1,9.2893235E-2,-8.221055E-2,-1.7097479E-2,-1.24625005E-1],"categories":[],"categories_nodes":[],"categories_segments":[],"categories_sizes":[],"default_left":[0,0,0,0,0,0,0,0,0,0,0,0,0,0,0,0,0,0,0,0,0,0,0,0,0,0,0,0,0,0,0,0,0,0,0,0,0,0,0,0,0,0,0,0,0,0,0],"id":30,"left_children":[1,3,5,7,9,11,13,15,17,19,21,-1,-1,-1,23,25,27,-1,-1,29,-1,31,33,-1,35,-1,37,-1,-1,-1,-1,39,41,-1,43,45,-1,-1,-1,-1,-1,-1,-1,-1,-1,-1,-1],"loss_changes":[2.661054E-1,5.7451576E-1,5.268636E-1,1.1039795E0,1.1323646E0,1.0668247E0,3.0586886E0,3.9015976E-1,4.0097916E-1,1.5524673E0,7.97849E-1,0E0,0E0,0E0,1.2974529E0,1.9633603E-1,1.1161404E0,0E0,0E0,7.6098347E-1,0E0,7.792985E-1,1.1191001E0,0E0,1.9134468E0,0E0,4.3551213E-1,0E0,0E0,0E0,0E0,1.1306391E0,1.8664209E0,0E0,1.1360515E0,6.4712554E-2,0E0,0E0,0E0,0E0,0E0,0E0,0E0,0E0,0E0,0E0,0E0],"parents":[2147483647,0,0,1,1,2,2,3,3,4,4,5,5,6,6,7,7,8,8,9,9,10,10,14,14,15,15,16,16,19,19,21,21,22,22,24,24,26,26,31,31,32,32,34,34,35,35],"right_children":[2,4,6,8,10,12,14,16,18,20,22,-1,-1,-1,24,26,28,-1,-1,30,-1,32,34,-1,36,-1,38,-1,-1,-1,-1,40,42,-1,44,46,-1,-1,-1,-1,-1,-1,-1,-1,-1,-1,-1],"split_conditions":[1E0,4.2E1,3E-1,4.1E1,4.4E1,5.3E1,6.2E1,1E0,1E0,3E-1,6E0,-1.6029105E-1,8.977032E-2,3.4934995E-1,6.9E1,1E-1,1E-1,3.7269348E-3,2.2169524E-1,2E-1,9.117224E-2,1E0,2E0,-1.3879395E-1,1E0,-4.712967E-2,1E0,1.04687616E-1,-1.8027836E-1,-2.6472881E-2,-2.478265E-1,1E0,1E0,-2.0563722E-1,9E0,7.6E1,2.415362E-1,1.07508466E-1,-5.2289825E-2,7.7476315E-3,-9.562243E-2,4.571478E-2,-2.0187779E-1,9.2893235E-2,-8.221055E-2,-1.7097479E-2,-1.24625005E-1],"split_indices":[52,70,71,70,70,70,70,66,64,71,67,0,0,0,70,71,71,0,0,71,0,24,66,0,64,0,64,0,0,0,0,44,64,0,67,70,0,0,0,0,0,0,0,0,0,0,0],"split_type":[0,0,0,0,0,0,0,0,0,0,0,0,0,0,0,0,0,0,0,0,0,0,0,0,0,0,0,0,0,0,0,0,0,0,0,0,0,0,0,0,0,0,0,0,0,0,0],"sum_hessian":[3.423863E2,3.287082E2,1.3678109E1,1.3542334E1,3.1516586E2,4.240151E0,9.437958E0,9.874394E0,3.667939E0,8.035418E0,3.0713043E2,2.1356869E0,2.104464E0,1.7191061E0,7.718852E0,6.587382E0,3.287012E0,1.0017987E0,2.6661403E0,6.0959888E0,1.9394288E0,2.9160184E2,1.5528599E1,3.3402214E0,4.3786306E0,1.1215191E0,5.4658628E0,1.2396154E0,2.0473967E0,2.356347E0,3.7396414E0,2.822418E2,9.360034E0,2.9723513E0,1.2556248E1,2.291027E0,2.0876038E0,3.9567297E0,1.5091333E0,2.7337457E2,8.867229E0,4.931929E0,4.428105E0,4.2192855E0,8.336963E0,1.138598E0,1.152429E0],"tree_param":{"num_deleted":"0","num_feature":"72","num_nodes":"47","size_leaf_vector":"1"}},{"base_weights":[-3.5883381E-3,1.7953026E-3,-1.8002236E-1,-4.717796E-3,1.8901892E-1,1.7441783E-2,-3.101053E-1,-2.8321737E-1,8.469948E-5,5.4583913E-1,-4.9628335E-1,-2.4314399E-1,9.4205074E-2,-2.1107818E-1,3.6051545E-2,7.0745185E-2,-5.728855E-1,-6.4551993E-3,1.877979E-1,-1.3374202E-1,9.17414E-1,-1.3077074E-2,-2.3981853E-1,3.3895995E-2,-1.4276597E-1,1.39208E-1,-1.4183457E-1,-4.3400813E-2,-2.3012988E-1,9.4679254E-4,-2.1872514E-1,2.3151305E-1,2.998648E-3,3.726065E-1,4.779939E-1,-5.3820405E-2,3.328005E-3,-1.24101944E-1,1.8751647E-1,-3.0291882E-1,1.0197004E-1,-2.3757167E-2,2.0532535E-1],"categories":[],"categories_nodes":[],"categories_segments":[],"categories_sizes":[],"default_left":[0,0,0,0,0,0,0,0,0,0,0,0,0,0,0,0,0,0,0,0,0,0,0,0,0,0,0,0,0,0,0,0,0,0,0,0,0,0,0,0,0,0,0],"id":31,"left_children":[1,3,5,7,9,11,13,15,17,19,21,23,-1,-1,25,-1,27,29,31,-1,33,-1,-1,-1,-1,-1,-1,-1,-1,35,37,-1,39,-1,41,-1,-1,-1,-1,-1,-1,-1,-1],"loss_changes":[3.2534966E-1,4.0700573E-1,2.659233E-1,4.3179592E-1,3.0146787E0,4.6080223E-1,8.654231E-1,9.5790875E-1,3.9202568E-1,3.303314E0,5.6420183E-1,3.1996384E-1,0E0,0E0,1.1410441E0,0E0,2.0539081E-1,4.8508257E-1,1.1577954E0,0E0,2.679968E-1,0E0,0E0,0E0,0E0,0E0,0E0,0E0,0E0,5.494914E-1,1.9697461E0,0E0,3.4720478E0,0E0,5.363705E-1,0E0,0E0,0E0,0E0,0E0,0E0,0E0,0E0],"parents":[2147483647,0,0,1,1,2,2,3,3,4,4,5,5,6,6,7,7,8,8,9,9,10,10,11,11,14,14,16,16,17,17,18,18,20,20,29,29,30,30,32,32,34,34],"right_children":[2,4,6,8,10,12,14,16,18,20,22,24,-1,-1,26,-1,28,30,32,-1,34,-1,-1,-1,-1,-1,-1,-1,-1,36,38,-1,40,-1,42,-1,-1,-1,-1,-1,-1,-1,-1],"split_conditions":[1E0,1E0,6.1E1,3.9E1,7E1,5.3E1,4E-1,1E-1,1E0,1E-1,1E0,4.6E1,9.4205074E-2,-2.1107818E-1,6.9E1,7.0745185E-2,1E0,1E0,4.5E1,-1.3374202E-1,3E-1,-1.3077074E-2,-2.3981853E-1,3.3895995E-2,-1.4276597E-1,1.39208E-1,-1.4183457E-1,-4.3400813E-2,-2.3012988E-1,4.4E1,1E0,2.3151305E-1,5.1E1,3.726065E-1,6.3E1,-5.3820405E-2,3.328005E-3,-1.24101944E-1,1.8751647E-1,-3.0291882E-1,1.0197004E-1,-2.3757167E-2,2.0532535E-1],"split_indices":[5,44,70,70,70,70,71,71,15,71,64,70,0,0,70,0,66,61,70,0,71,0,0,0,0,0,0,0,0,70,1,0,70,0,70,0,0,0,0,0,0,0,0],"split_type":[0,0,0,0,0,0,0,0,0,0,0,0,0,0,0,0,0,0,0,0,0,0,0,0,0,0,0,0,0,0,0,0,0,0,0,0,0,0,0,0,0,0,0],"sum_hessian":[3.4118448E2,3.3204248E2,9.1419935E0,3.218218E2,1.0220674E1,3.9745688E0,5.1674247E0,4.4727273E0,3.173491E2,6.854965E0,3.3657079E0,2.2115502E0,1.7630186E0,1.9351195E0,3.2323055E0,1.668669E0,2.8040583E0,3.0759802E2,9.751056E0,1.8140137E0,5.0409517E0,1.8085191E0,1.5571887E0,1.0774438E0,1.1341065E0,1.8034761E0,1.4288293E0,1.4193898E0,1.3846685E0,2.981953E2,9.402725E0,1.5806671E0,8.170388E0,1.8487475E0,3.1922042E0,1.499465E1,2.8320065E2,8.052097E0,1.3506285E0,1.5410064E0,6.629382E0,1.02956E0,2.1626444E0],"tree_param":{"num_deleted":"0","num_feature":"72","num_nodes":"43","size_leaf_vector":"1"}},{"base_weights":[-3.593976E-3,6.0133465E-2,-1.6636398E-2,1.0060621E-1,-2.0632154E-1,-2.675007E-2,2.6577058E-1,1.4807147E-1,-5.5625993E-1,-1.718418E-2,-2.9390648E-1,-1.5241666E-1,4.2373118E-1,1.11641705E-1,2.8225544E-1,-3.519425E-2,-2.636941E-1,-2.5396746E-1,-5.2695083E-3,-3.7573436E-1,5.4610528E-2,1.7763948E-1,5.0941724E-1,1.4973012E-1,-1.589743E-1,-3.8354152E-1,1.696299E-1,7.78492E-2,-3.563082E-2,-1.1103541E-1,-2.1011634E-1,1.23915E-1,-5.7338562E-2,2.5219467E-1,2.5314057E-1,2.7969537E-2,1.6273779E-1,-1.8031022E-1,-3.5179622E-2,1.5791403E-3,1.1527013E-1,-5.0804093E-3,-1.4783874E-1,-1.1631086E-1,9.028789E-2,2.0585526E-2,1.1522755E-1],"categories":[],"categories_nodes":[],"categories_segments":[],"categories_sizes":[],"default_left":[0,0,0,0,0,0,0,0,0,0,0,0,0,0,0,0,0,0,0,0,0,0,0,0,0,0,0,0,0,0,0,0,0,0,0,0,0,0,0,0,0,0,0,0,0,0,0],"id":32,"left_children":[1,3,5,7,-1,9,11,13,15,17,19,-1,21,23,-1,-1,-1,25,27,29,-1,31,33,35,-1,37,-1,39,41,43,-1,-1,-1,-1,45,-1,-1,-1,-1,-1,-1,-1,-1,-1,-1,-1,-1],"loss_changes":[2.8489462E-1,1.8321733E0,8.191726E-1,1.8323143E0,0E0,6.987517E-1,1.4280298E0,1.4295253E0,4.6247077E-1,7.517496E-1,4.3674082E-1,0E0,9.4750285E-2,1.3484126E0,0E0,0E0,0E0,1.5724199E0,6.4672387E-1,6.4381564E-1,0E0,4.091973E-1,2.948749E-1,1.0545009E0,0E0,6.024667E-1,0E0,1.5232341E0,1.5950031E0,7.793849E-1,0E0,0E0,0E0,0E0,8.9693666E-2,0E0,0E0,0E0,0E0,0E0,0E0,0E0,0E0,0E0,0E0,0E0,0E0],"parents":[2147483647,0,0,1,1,2,2,3,3,5,5,6,6,7,7,8,8,9,9,10,10,12,12,13,13,17,17,18,18,19,19,21,21,22,22,23,23,25,25,27,27,28,28,29,29,34,34],"right_children":[2,4,6,8,-1,10,12,14,16,18,20,-1,22,24,-1,-1,-1,26,28,30,-1,32,34,36,-1,38,-1,40,42,44,-1,-1,-1,-1,46,-1,-1,-1,-1,-1,-1,-1,-1,-1,-1,-1,-1],"split_conditions":[5E1,1E0,1E0,1E0,-2.0632154E-1,1E0,1E-1,1E0,3E-1,5.2E1,8.6E1,-1.5241666E-1,7.5E1,1E0,2.8225544E-1,-3.519425E-2,-2.636941E-1,1E0,6.1E1,4E-1,5.4610528E-2,5E0,7.8E1,1E0,-1.589743E-1,3E-1,1.696299E-1,5.9E1,1E0,1E0,-2.1011634E-1,1.23915E-1,-5.7338562E-2,2.5219467E-1,8.5E1,2.7969537E-2,1.6273779E-1,-1.8031022E-1,-3.5179622E-2,1.5791403E-3,1.1527013E-1,-5.0804093E-3,-1.4783874E-1,-1.1631086E-1,9.028789E-2,2.0585526E-2,1.1522755E-1],"split_indices":[70,56,8,8,0,60,71,38,71,70,70,0,70,7,0,0,0,49,70,71,0,69,70,11,0,71,0,70,9,64,0,0,0,0,70,0,0,0,0,0,0,0,0,0,0,0,0],"split_type":[0,0,0,0,0,0,0,0,0,0,0,0,0,0,0,0,0,0,0,0,0,0,0,0,0,0,0,0,0,0,0,0,0,0,0,0,0,0,0,0,0,0,0,0,0,0,0],"sum_hessian":[3.4056378E2,5.724493E1,2.8331885E2,5.5127083E1,2.1178474E0,2.743973E2,8.921547E0,5.2134422E1,2.992663E0,2.6593933E2,8.457987E0,1.1366959E0,7.784851E0,5.0934696E1,1.1997237E0,1.8457273E0,1.1469356E0,1.1767392E1,2.5417192E2,7.3968105E0,1.0611765E0,2.8042223E0,4.9806285E0,4.8803883E1,2.1308138E0,1.0619954E1,1.1474384E0,6.7584625E1,1.865873E2,4.813909E0,2.5829015E0,1.6382998E0,1.1659226E0,1.1779351E0,3.8026934E0,4.37477E1,5.056185E0,5.15346E0,5.4664936E0,5.546227E1,1.2122356E1,1.8025276E2,6.3345356E0,2.9152143E0,1.8986948E0,2.2110808E0,1.5916126E0],"tree_param":{"num_deleted":"0","num_feature":"72","num_nodes":"47","size_leaf_vector":"1"}},{"base_weights":[-3.350231E-3,-9.298892E-3,1.3754487E-1,-4.068839E-4,-2.917154E-1,-2.772607E-1,2.8922307E-1,7.7512227E-3,-2.4280974E-1,1.7041942E-2,-2.3531945E-1,1.3115697E-1,-2.3531675E-1,4.733646E-1,-1.1848395E-1,-7.1748946E-4,1.9126914E-1,-5.6798303E-1,2.734049E-1,3.273156E-1,-1.2952837E-1,7.5674486E-1,-1.0850654E-1,4.544283E-3,-2.615258E-1,-1.2600718E-1,3.448553E-1,-1.2606468E-2,-2.55656E-1,2.7029842E-1,-2.5546044E-1,1.7031981E-1,5.1580757E-2,-1.2712837E-2,3.0332303E-1,-1.6249564E-1,7.573172E-2,3.8305117E-4,1.2338234E-1,-1.4785714E-1,5.3845193E-2,6.448884E-2,-1.6108958E-1,2.971374E-1,2.6463041E-2,-1.2502469E-1,1.23402394E-1,-2.1586332E-3,-1.1879618E-1,2.1623729E-2,2.3753801E-3],"categories":[],"categories_nodes":[],"categories_segments":[],"categories_sizes":[],"default_left":[0,0,0,0,0,0,0,0,0,0,0,0,0,0,0,0,0,0,0,0,0,0,0,0,0,0,0,0,0,0,0,0,0,0,0,0,0,0,0,0,0,0,0,0,0,0,0,0,0,0,0],"id":33,"left_children":[1,3,5,7,9,11,13,15,17,19,-1,-1,-1,21,-1,23,25,27,29,31,-1,33,35,37,39,41,43,45,-1,-1,47,-1,49,-1,-1,-1,-1,-1,-1,-1,-1,-1,-1,-1,-1,-1,-1,-1,-1,-1,-1],"loss_changes":[2.867763E-1,8.229955E-1,9.523715E-1,6.3225955E-1,1.5351087E0,1.8727342E0,1.527442E0,4.8092815E-1,1.9026685E0,1.1339666E0,0E0,0E0,0E0,1.539507E0,0E0,4.0836436E-1,7.0859796E-1,1.0486224E0,1.7895347E0,2.878183E-1,0E0,1.2763655E0,7.260383E-1,3.8729823E-1,6.8881685E-1,8.419281E-1,1.4809116E0,7.345967E-1,0E0,0E0,1.1328249E-1,0E0,2.407902E-3,0E0,0E0,0E0,0E0,0E0,0E0,0E0,0E0,0E0,0E0,0E0,0E0,0E0,0E0,0E0,0E0,0E0,0E0],"parents":[2147483647,0,0,1,1,2,2,3,3,4,4,5,5,6,6,7,7,8,8,9,9,13,13,15,15,16,16,17,17,18,18,19,19,21,21,22,22,23,23,24,24,25,25,26,26,27,27,30,30,32,32],"right_children":[2,4,6,8,10,12,14,16,18,20,-1,-1,-1,22,-1,24,26,28,30,32,-1,34,36,38,40,42,44,46,-1,-1,48,-1,50,-1,-1,-1,-1,-1,-1,-1,-1,-1,-1,-1,-1,-1,-1,-1,-1,-1,-1],